3084 20
say -0.09252365 -0.86034936 -0.7485001 -0.39523163 0.15717262 0.89548135 0.24053694 -0.78046453 -0.5687273 -0.08775157 -1.0641028 0.00598639 0.5211586 -0.9324592 0.13790329 0.47464532 -1.4153388 0.39931574 -0.79309213 -0.083909154
get 0.124085605 -0.12066023 1.344882 -0.3039692 -0.95658916 0.75222325 -0.21590196 -0.5265511 -0.7837299 -1.4710306 0.49484238 -0.17442757 -0.60221124 0.58340234 -0.19721077 1.1109936 0.6092436 0.21714827 -0.17847319 1.0372384
go 0.3572735 -0.4655432 -0.24032335 0.15495351 -0.43693805 -0.056050617 0.1068801 0.24377406 0.5867188 0.11243097 0.9214381 -0.3941451 -0.7899121 -0.5007395 -0.5661924 -0.15250005 0.030974202 0.526458 -1.2598563 1.3224769
like 0.93916625 -0.56153536 0.68229973 0.7511984 0.27048874 -0.086293586 0.9458423 0.2314071 -0.7080101 0.66357344 -0.08821073 0.27776977 0.5117259 -0.5083933 -0.5582589 0.48970455 0.28210714 -0.33975556 1.2125486 0.09461064
old 0.768717 -0.87568307 -0.5658976 -0.6084761 0.53799856 0.31737626 -0.28594303 -0.52745247 -0.44252208 0.034105714 1.0050726 -0.96266574 -0.8057716 -1.0281305 1.0889522 -0.50418836 0.0058095017 0.2843407 0.14537576 -0.989596
know -0.075341135 0.4672969 0.0293574 0.28974497 -0.59534544 0.5555868 -0.47100875 -0.15817232 0.31494063 0.022937939 -0.10918335 -0.7488194 -0.039365765 -0.86025274 0.60366577 0.7706395 0.32832688 0.99757034 -0.1682512 -0.84807193
could 0.80243856 0.24796648 0.095949516 -0.2941113 -0.23123886 0.75661325 0.93449366 0.53226227 -0.14698964 -0.59963006 0.81392914 0.23659363 0.36499035 1.2271721 -0.103961796 0.37040442 0.42930537 0.5609087 -0.61263907 0.018431375
one 0.20259044 0.6555636 -0.574731 0.52492785 -0.4435523 -0.31890392 0.4523274 -0.24563009 1.4829142 -0.7723595 0.3457303 -0.45217207 0.446918 0.31033692 -0.064644344 0.44771016 0.009981075 -0.92246157 -0.12982592 -0.30271333
tell -0.27454343 0.22370267 -0.7712676 0.38016152 -0.22168316 0.55017555 -0.08957031 0.2446563 0.2108822 -0.7335624 -0.46186805 -1.0486814 0.17378053 -0.108467475 -0.4051791 0.23158942 0.1658122 0.49099743 0.3782095 -0.42385924
think 0.031495895 0.35967487 0.22824067 0.6137744 -0.2739109 0.66442275 0.75928503 -0.11001419 -0.048139676 -0.27354783 0.28630078 -0.71371347 0.19166286 -0.23960051 -0.4996383 0.66910636 -0.41482875 -0.84502494 -0.30418605 -0.04312836
guy -0.38353404 0.18123883 -0.6508969 -0.5961965 -0.035589565 -0.03401573 0.6471758 0.34405044 0.3739734 -0.17760205 0.039119788 1.6452678 0.41307592 -1.1849566 -0.12845509 0.25745273 1.4282957 0.4295602 -0.39343822 -0.07861778
look 0.49379292 0.25839984 -0.1652456 -0.031232767 0.2818574 -0.06905643 -0.89693266 -0.14730127 -0.09706091 -0.40819395 1.1200083 0.6923937 0.21432742 -0.22666913 -0.2129353 0.6287419 -0.60408735 0.9300787 0.5317608 -0.65996194
goddam 0.17273836 0.054755278 0.26684228 -0.77835286 -0.6925384 -1.0020659 0.22396912 1.0782118 0.19775593 -0.07171392 0.78871423 0.73059934 0.19792594 0.06587333 -0.7230706 -0.049789708 -0.65831155 1.1712204 -1.114448 0.3435781
would 0.72724783 -0.36583108 -0.26774418 0.8650036 -0.13129815 -0.40238133 0.43141043 0.90146637 0.12889338 0.44697517 -0.3580752 -0.03670854 -0.08640475 -0.29843864 -0.12717961 0.46985814 0.35967055 0.35471916 0.005732089 0.19192323
around 0.19524139 -0.5199826 1.2911068 0.25143817 0.5462208 -0.6116128 0.05220703 -0.53682494 -0.85941947 0.14901534 1.3280458 0.3673527 0.08019486 -0.5253166 -0.28929183 -0.3033905 -0.72489506 0.42560187 -0.42651507 -0.024467213
even -0.09581459 0.64388174 -1.0963869 0.6913595 -0.8480113 -0.74243754 0.08073128 -0.7972747 -0.57071346 0.15020637 -0.1777696 0.815351 -0.32146594 -0.39067897 -0.18482856 0.5153041 0.0980247 -0.03885626 0.79186606 0.26303262
hell 1.2654521 0.20395845 0.6448844 -1.2056277 -0.7921485 -0.4679153 0.404081 -0.23339546 -0.22634357 -0.6889784 -0.17600521 0.6146845 -0.7942124 -0.40833482 -0.7191952 0.72620285 -0.5192909 -1.1007048 -0.3591246 -1.1775362
take 0.04212025 -0.06371044 -0.0019824011 1.5162832 -0.2214532 -1.1467509 -0.4398371 -0.71761787 0.3736392 -0.7245122 -0.15751638 -0.4259932 -1.14177 -0.26079515 -0.65812254 0.35778576 -0.78171813 0.010750054 -0.17086092 0.6946542
right 0.59448516 -0.4490016 0.12211409 -0.95634705 -0.6648626 -0.4087563 -0.38652435 -0.5738986 0.29913527 0.7734819 -0.2846257 0.3988325 0.4362315 -0.33118194 -0.5786059 -0.016955752 0.63617665 0.5920206 -0.10432813 -0.1655219
something 0.006256923 0.40883803 0.4849936 -0.29638758 0.20857592 -0.33600506 1.0784429 -0.39071462 -1.0281608 0.5275372 0.007213222 -0.50506663 0.55963576 0.061967023 -0.84863317 -0.17905313 -0.37922817 -0.17298973 -0.10779045 -0.16928032
time 0.62729514 0.17163551 -0.38294232 1.2281669 0.2633206 -0.6970149 -0.7389784 -0.11657357 0.5701498 -0.07776009 0.08971904 -0.2073749 0.28258827 -0.8436684 -0.07193101 0.5095664 0.2351282 0.37650874 0.41856465 0.5783703
anything -0.075976364 -0.43344632 -0.7572296 -0.3345461 0.12336912 -0.3020515 0.38062155 -0.28427622 -0.334312 0.76002294 -0.19150451 0.27678564 -0.0809701 0.17906086 -0.74802047 0.643486 -1.0975766 0.44000366 0.0034213841 -1.2994078
come 0.17010832 -0.014217308 0.15179193 0.29353315 -0.08776923 -0.42660427 0.13514723 -0.44825536 0.82739776 0.8556081 0.40522498 -0.025481716 0.56172925 -0.42101008 -0.37582657 0.03554297 0.36014277 -0.20779626 -1.2745708 -0.27314752
start 0.15207788 -0.43083954 1.2408417 0.50767857 -0.13708937 -0.89928734 0.18653 0.045214437 0.108362764 0.20900781 0.3090583 0.06852077 0.12739582 -0.66229093 -0.3269052 0.5796184 -0.7305029 0.6344409 0.3715581 0.28007814
want -0.63638633 0.47562736 0.5756173 0.80971545 -0.5916049 -0.51447403 0.9792978 -0.32940045 0.68074745 -0.6966915 -0.857518 0.4668258 -0.24974242 -0.59349906 -0.46566778 0.038612727 -0.25209457 0.33595622 -0.3180131 -0.7224486
give 0.4918381 -0.89761513 0.3611462 0.35133538 1.4435133 -0.95972764 0.592905 -0.8927447 0.7051587 -0.20344558 -0.49546844 -0.4477648 -0.44493043 0.6659302 -0.55200225 0.2246571 0.5291531 0.8431144 -0.42363867 0.25331584
though -0.4506528 -0.7071934 -0.4513527 0.5319229 0.24256797 -0.081519544 0.67728746 -0.1833102 -0.6854882 0.05037235 0.012611207 1.0387245 0.89272594 -0.96624666 -0.058726404 -0.47755226 0.48170412 0.28400332 0.78410286 -0.2999291
mean -1.038893 -0.6557851 -0.44248185 0.8261928 -1.220717 0.49294072 0.053970084 0.13786413 -0.13477333 0.048247322 -0.5167412 -0.25041497 0.375283 0.35239628 -0.2346852 0.31874293 0.06339546 -0.4996412 -0.53924006 -0.93404186
keep -0.014589853 -0.41817585 0.4343914 -0.111490205 -0.426656 -1.2021028 0.11304015 -0.57622653 -0.022838034 -0.5127376 -0.34985328 -0.6389132 0.35838103 0.5316817 0.5671214 0.37849736 -0.80218464 0.30949703 -0.45118088 -0.19313908
sort 0.40854424 -0.06462912 -1.0454025 -1.1705476 -0.45272192 -0.73396915 0.046808485 0.8211282 -0.048419748 -0.6666561 0.6132682 0.6267544 0.35067886 -0.5942924 -0.8455784 -0.63344085 -0.7834428 0.24857168 0.108358465 -0.060843013
see 0.20759104 -0.25605407 -0.4179889 0.036501966 0.06313091 0.61219555 -0.5659668 0.4565327 0.5065733 -0.3296873 0.50547457 -0.54963464 0.5631262 0.08183931 -0.47871926 -0.20569901 0.6706658 -0.49650583 -0.4944178 -0.6508181
way -0.02038402 -0.43711826 -0.00650222 -0.031353183 -0.4440963 -0.5187803 0.42602894 0.25789443 0.13767587 -0.29488933 0.19364892 -0.581083 0.15637615 0.05083907 -0.3316281 -0.3352071 -0.37984616 0.11209375 0.1076205 0.065323345
really 0.31080666 0.14101806 -0.076421455 -0.18559971 -0.806745 0.019498209 1.0578319 -0.38399458 0.95061255 -1.0826015 -0.036368422 0.16003403 0.19953936 -0.31469664 0.21401252 -0.030343197 0.3148929 -0.2071735 0.72029996 -0.66248655
thing -0.6457554 -0.44176883 -0.45604497 -0.36738917 -0.24416658 -0.025060868 0.7534579 -0.4237252 0.33215603 0.011138892 0.13554287 -0.25203896 0.73372304 0.1042675 -0.48943892 -0.08821043 0.758796 -0.06682556 -0.10157497 0.21692666
boy 0.78569454 -0.41608882 0.21400106 -0.6839034 -0.81826824 0.76901907 0.7578256 -0.91774976 1.2939342 -1.0158504 -0.6723051 1.201207 0.14618887 -0.14598726 -0.14698324 0.7084015 0.57867366 0.13274713 0.375677 -0.54931885
good 1.0570418 -0.60606056 0.011833411 0.48934454 -0.030527234 0.4074248 0.5057983 0.7309565 -0.16899195 -0.3606671 -0.8843094 0.33082235 0.48438546 0.058392923 0.2174175 0.5043521 0.42510825 0.65840703 0.55607295 -0.3169236
make 0.85861844 -0.12314862 0.005498144 0.54537827 0.2343773 0.69865966 0.598675 0.16513726 -0.6727307 -0.28565753 0.13340482 -0.24618745 0.005691346 -0.28180254 -0.8970072 -0.05673865 -1.0570933 -0.33241323 0.124781094 -0.4344824
anyway 0.009885936 -0.80172914 0.002739399 -0.38744825 -0.8089874 -0.32216144 -0.011629721 -0.35291824 0.044688955 -0.4224794 0.48853508 0.08282804 -0.36715028 0.17182033 -0.3100632 0.1577956 -0.44367418 0.094916016 0.88405925 -0.12874371
always 0.04599909 0.050423745 -0.5576732 0.14633524 -0.25979277 -0.5137356 0.29779378 0.8526369 -0.6789617 0.62867427 0.46539834 -0.1944529 -0.043025702 -0.77578676 -0.56829226 -0.52333766 -0.29482386 0.6049744 0.9411263 -0.6838793
back 0.47360218 -0.048775945 0.6660226 0.7443672 -0.14021775 -0.65753424 -0.22811511 0.099764705 0.18181518 -0.40659878 0.38975912 -0.24395567 -0.30042535 0.15151979 -0.39561123 -0.40014747 0.20324813 0.33332756 -0.8056992 -0.02106723
little -0.19158295 0.09547406 0.38798228 0.54967606 -0.65723866 -0.53982437 0.0005314223 -0.62405545 -0.32689998 -0.44950172 0.47882563 -0.2303757 0.87464285 0.030595675 -0.15907814 -0.7480958 -0.48888186 -0.090310365 0.5295964 -0.13606767
sit 0.58048284 0.34045142 -0.087136574 -1.358709 -0.21834688 -0.5731768 0.21990573 -0.13826014 -0.57354873 -0.2271671 0.853101 0.32161024 0.04637187 -0.09408069 -0.14263423 0.0068184356 -0.42263255 0.5656392 -0.781744 -0.09568937
damn 0.7326275 0.14660981 0.44339502 -0.18186687 -0.32083833 0.17431265 0.6207945 0.45346123 -0.5247121 -0.35162395 0.45488772 0.16522534 -0.5514566 -0.32138422 -0.8991752 -0.5525529 0.41924378 0.952284 0.7461706 -0.29547313
kid -0.11274041 0.43340272 0.20304458 0.5917301 -0.08479082 -0.06669604 -0.031944863 -0.048482317 -0.092673786 -0.48876995 0.96658134 -0.7333403 0.4311044 -0.3818403 0.030001516 -0.51941437 0.32985628 0.17568266 0.31769395 -0.6168186
much -0.25252056 0.42707077 -0.29294014 0.24793556 -0.494101 0.10426239 0.26876405 -0.33647075 -0.46264642 -0.09610023 0.026653904 0.1720191 0.08475316 0.06787959 -0.6286584 0.03165615 0.513651 0.01188169 0.31540278 -0.44877538
room 0.4670437 0.2501731 0.03716198 -0.3304779 0.090837926 -0.29986578 -0.25312 0.22686622 0.40829912 0.33616203 1.1057982 -0.034986228 0.30662283 0.2703633 -0.796616 0.7800171 -0.046862055 0.44003263 -0.63257974 -0.034519393
pretty 0.95289546 0.35092232 -0.12755515 0.16461475 -0.7074308 -0.2362721 -0.13157621 0.060921635 -0.2588943 -0.92417544 0.25720578 1.4305065 0.86158293 -0.56819195 -0.18622108 0.38460463 -0.37252167 -0.37694952 1.0114866 -0.06899749
feel 0.55323535 -0.20006908 0.3177974 0.19809638 -0.55602765 -0.23885909 0.5999999 0.010018197 -0.17553669 -0.29987386 0.018010516 0.7580913 0.3132049 -0.44592404 -0.49772677 -0.01518662 0.031744078 -0.2848595 0.9452389 -0.38162255
ask -0.054686148 0.015894243 0.06547496 0.27401504 0.13652717 0.38156274 0.97493434 -0.14152811 -0.68759066 -0.18716463 0.30637452 -0.7389694 0.50984114 -0.41813865 -0.4360006 -0.108426906 0.2071732 -0.34195164 0.24404249 0.31729522
phoebe 0.10125888 -0.21991985 -0.40070364 -0.3329784 0.15946673 0.039348688 -0.22942173 -0.5959383 -0.35058397 -0.23895259 0.5099696 -1.2800006 0.04236104 -0.46443534 0.47463712 -0.49589077 0.24250805 0.47107366 -0.2874813 0.29536566
big -1.4494913 -0.15722753 0.8124599 0.46598178 0.72829086 -0.7962422 -0.09418233 1.3961349 -0.806696 -0.8510878 0.04368376 0.59578645 0.7613421 -0.69814056 -0.59955114 0.41956663 0.77629125 0.3835585 -0.5658967 -0.7385842
stuff 0.14817253 0.155709 -0.11178063 0.008814393 -0.3322148 0.3909199 0.48296276 -0.4866296 0.22548015 0.063376516 0.22842214 0.2374999 -0.32549587 -0.16240112 -0.20668197 0.3041457 0.5310921 0.6475062 0.5294893 -0.34705517
girl 0.098526575 -0.10863302 -0.026201623 0.46936676 -0.15390408 0.03950547 -0.020365823 -0.22325584 0.0704111 -0.14196262 0.3132559 -0.25502235 0.5811934 0.09413953 0.36970636 0.33715048 0.47326183 -0.24976376 0.5550851 -0.3194849
somebody 0.34562773 0.04268058 -0.39596385 0.63459796 -0.16983508 -0.44153026 0.15664771 -0.12594812 -0.27470428 0.6718194 -0.2607466 0.30205262 0.5230777 0.30216265 -0.102116674 0.48868442 0.31498337 -0.010690223 0.21909991 -0.31087157
lot 0.12252567 -0.83883506 0.023369685 0.43674257 -0.2848291 -0.17195857 -0.28242135 0.37742803 -0.7149646 -0.19117628 -1.0112274 -0.34989053 0.32446304 0.16875386 -0.61329466 -0.14200787 0.5531425 0.17480354 0.9116762 -0.4510703
stradlater 0.4197738 -0.6662469 0.05497315 -0.29704913 -0.05612689 -0.20663106 0.077232614 0.14236629 0.36815384 0.12889406 0.57088333 0.46204343 0.014839355 -0.36803493 -0.4465941 0.72677726 -0.70055467 0.57676244 -0.22677456 -0.4779326
never 0.0030638385 -0.33357024 0.09323703 0.3428024 -0.26563203 -0.31457388 0.6593322 0.056975022 -0.6665379 -0.09242559 0.29082942 -0.37697995 -0.0042471103 0.42778647 -0.50999403 0.37242875 -0.27766803 0.0530858 0.6710806 -0.255405
walk -0.027127001 -0.024532441 0.69293875 -0.25794327 -0.36064222 -1.0998977 -0.3136009 -0.31831846 -0.27873746 -0.10809496 0.61595225 -0.43967286 -0.22641972 -0.43628928 -0.22954401 -0.076724455 0.5409167 0.006412968 -0.74392307 0.38412678
mother 0.17199193 -0.27577326 -0.04028937 -0.16718121 0.15173642 0.7565616 -0.017166963 -0.7458978 -0.466495 -0.582831 -0.054214433 0.22986107 0.48524985 -0.10089707 -0.437749 -0.38533753 0.09409529 0.63426906 -0.40832317 0.44800624
put 0.31380126 0.18532549 -0.6446437 0.47951895 0.07712596 -1.2217658 -0.24640454 -0.4118283 -0.1439715 0.45916843 0.7755592 0.11115851 -0.31503546 0.8954221 -0.5165062 0.46390265 -1.013536 0.17983977 -0.07205921 -0.3511582
quite -0.9712572 -0.36802268 -0.08957632 0.6669116 -0.59693444 -0.3117298 0.17555742 -0.655812 0.6715217 0.01640756 1.0620207 -0.1254637 1.1702309 -0.0549318 -0.32355553 0.44054487 -0.38498533 -0.7571485 0.54239047 0.32666123
place -0.2585978 0.5110321 -0.70162874 0.5863871 -0.26411787 -1.032498 0.37204623 -0.26603186 -1.1293241 0.51174927 -0.52600914 0.34049603 0.82307005 -0.381253 0.28744602 -0.21411864 0.2163908 0.56367177 0.42844862 0.2891042
hand 0.13459526 -0.30342636 -0.4260539 -0.1434394 -0.20989132 -0.8915912 -0.49379516 0.046335932 -0.15318401 -0.10555296 0.0260765 0.65055656 0.87181395 0.8753343 -0.42706883 0.51131994 -0.7830354 0.16329686 -0.5352895 -0.37657395
bed 0.2625404 0.091229424 -0.13763602 -0.19518138 -0.5532493 -0.60032964 -0.11112939 0.2908297 -0.6815804 0.14734682 0.70892286 -0.4924931 0.112308055 0.121730424 0.03482175 0.1865638 -0.39663762 0.12854637 -0.60265744 -0.16600496
talk -0.3026033 -0.21064344 -0.29243815 0.6551368 -0.43242943 0.10453904 0.019466713 -0.2157241 -0.24193425 0.07231332 0.19956654 -0.47135246 -0.08128098 -0.20369121 -0.15227345 0.2535276 0.10297889 0.041014075 0.09799945 -0.5103684
two 0.15552025 0.3436857 0.18360007 -0.16045648 0.33874914 -0.013678072 0.4029987 -0.4088441 -0.23493387 -0.615378 0.46627375 -0.48335236 0.43174556 0.4411594 -0.11513152 0.037914407 0.43587965 -0.37611377 -0.6847438 0.10084644
probably 0.14227812 -0.935074 0.2157613 -0.006415325 0.15190664 0.13055344 0.053262353 -0.098925784 0.07408801 -0.43354616 0.30038977 0.018832896 -0.13628373 -0.065936156 -0.21368584 0.23516841 0.046624344 -0.17387402 -0.56250376 -0.37960297
home 0.7491147 -0.8391439 0.03716354 -0.30785456 -0.20910846 -0.24104927 -0.046805453 -0.12532017 0.15235311 0.5879387 0.33101743 -1.1706501 0.08532288 -0.16464558 -0.2754781 0.017680166 0.012353921 -0.6105902 -1.0543528 0.7303122
whole 0.03695913 -0.08223865 0.41453534 0.17932016 -0.5200066 -0.550577 0.036984786 -0.3498527 -0.56446004 -0.20977302 -0.4713252 -0.06628985 0.12649891 -0.13533273 0.0687845 0.12863678 0.7997322 0.5295891 0.46027026 0.07404454
next 0.3115725 0.00083358877 -0.07745745 -0.91671157 -0.22003835 -0.5069874 0.14215574 0.027759546 -0.071162716 -0.118520364 0.6043103 -0.019233301 -0.06219586 0.034156337 -0.29865584 0.36949417 -0.7412298 0.32216793 -1.1550559 -0.15660332
school 0.100002594 0.14959715 0.114152804 0.41632614 0.14326683 -0.2910236 -0.24021567 -0.16784853 0.13485095 -0.38904452 0.14534089 -0.24527921 -0.18257436 -0.4503331 -0.02507485 0.10430211 1.0189811 0.1951227 -0.68671036 -0.24612455
play -0.51722753 -0.21610068 0.41731784 0.3702631 -0.10323835 -0.12992631 -0.32322118 0.47544172 0.23583251 -0.37818524 0.58839107 -0.16061872 0.044201244 -0.10642652 -0.04349843 0.62412256 1.3003284 -0.16914345 0.48156554 -0.71433705
still 0.26497558 0.282927 -0.072607405 0.38752553 -0.60624427 -0.7454733 -0.6206962 -0.30945018 -0.5988635 -0.28012696 -0.07828566 0.604026 1.1756555 0.319446 -0.5702912 0.02666122 0.08952977 0.19392943 0.32895064 0.5314221
let 0.18667218 -0.4192486 -0.42162123 1.0158613 -0.30982304 -0.4495193 -0.961363 -0.015972469 -0.23783863 -0.1665395 -1.251542 -1.2401556 0.72856903 0.0228581 0.23939803 -0.20446074 -0.3036421 0.80389786 0.10130995 0.20590366
ever 0.22632621 -0.5806934 -0.7062066 0.58040446 -0.70264065 -0.11301607 -0.38739312 -0.21876833 0.010665458 -0.75365037 0.15898745 0.3883865 0.33980548 -0.058229174 0.46581337 -0.30117378 0.46320918 -0.3714994 -0.39772812 0.41023412
nice 0.35826102 0.23440486 -0.3143705 0.25731078 0.16322441 0.4624426 -0.34827346 -0.5395585 -0.39796802 -0.67823434 0.33525452 0.9905015 0.70138973 -0.09353225 -0.017291622 0.9524003 -0.4130203 0.5293358 0.6528614 -0.6624576
god 0.40431476 1.1325846 -0.107686214 0.7689867 0.28698954 0.49971402 0.24940084 -0.77737796 -0.43991378 0.18598673 0.5389071 -0.8550153 -0.9455933 -0.66322786 -0.51672745 -0.07423166 1.0087608 -0.41463804 -0.28104514 -0.5325258
ackley 0.39037845 -0.56753975 0.06248884 -0.04190323 -0.14676584 -0.09545252 0.044528276 0.26150078 0.7279374 -0.2538119 -0.044392586 0.33238214 0.16653676 -0.5269566 -0.18780138 0.60150754 -0.18183608 0.6442399 0.16833968 -0.44859132
crazy -0.19378962 -0.37946102 -0.17510203 -0.096520364 0.32300848 -0.40861967 -0.3328083 0.23771703 0.0031910245 -0.47457397 0.9260163 -0.49851578 -0.46202692 -0.8442866 0.03369089 0.56046194 -0.316086 0.06270002 0.25103757 -0.76703316
sudden 0.11808761 0.12717982 0.013188671 -0.22598276 -0.20781052 -0.34076574 0.1830519 -0.5003496 -0.6841452 -0.14131123 -0.1135281 0.62427765 0.23048668 -0.37137157 -0.35998595 -0.3774783 -0.30571634 0.9576448 0.39505544 -0.28519648
hear 0.4256721 -0.32609883 0.03333197 0.20995358 -0.51973104 0.034356285 -0.29964167 0.034372102 0.070731856 -0.2552495 0.32778177 -0.12283779 0.18801491 -0.096255325 -0.029802624 0.14822374 -0.2214346 0.13192396 -0.26018777 0.08417455
use 0.3853915 -0.14143147 -0.057431955 0.7561178 -0.44162652 -0.289455 0.0384721 -0.43968093 -0.022400152 -0.09873541 0.4691892 -0.34659243 -0.14206205 -0.32832897 -0.22276302 -0.051135346 -0.032766346 -0.5015426 0.3464768 0.3142305
felt 0.4718136 -0.3590674 -0.3632037 -0.02840448 -0.70006025 -0.097037606 0.4377073 0.36740583 -0.22892456 -0.5908842 0.34398186 0.5873534 0.47559422 -0.56721157 -0.4242854 -0.20683798 -0.30940205 -0.28717822 0.5617107 -0.04610811
leave -0.17315453 0.53489107 -0.50003636 -0.36619642 0.0028403134 -0.58923674 -0.053235278 -0.20483214 0.5953305 -0.20304146 0.33873373 -0.0558214 -0.81544393 -0.07429672 -0.25090495 0.2725395 0.7022713 0.87941456 -0.9965292 0.26463413
stand 0.5618738 0.4119075 0.09821534 0.16718253 -0.1779278 -0.67791235 -0.046984404 0.03733376 0.013010057 -0.20156202 -0.23381242 0.4364087 0.060348827 -0.19334407 -0.11460856 0.10645613 -0.05221946 0.5249376 -0.44156265 -0.17110606
try 0.093607984 -0.22667685 -0.13833977 -0.8968001 -0.22383246 0.38843536 -0.048033025 -0.22165574 -0.55746025 0.09419048 0.1557763 -0.18722895 0.7737868 0.65342665 -0.06405411 0.03180996 0.36650074 0.80596834 -0.6080173 -0.31194708
hat -0.07731656 0.10745521 -0.48544595 0.8643325 0.06038151 -0.2563509 -0.3834154 -0.0057856846 0.4535939 -0.048987202 0.6286284 0.3960522 -0.66035 -0.48190525 -0.5966435 0.39010984 0.63415074 0.7373644 0.78362584 -0.3696336
funny 0.08824574 0.0019450245 -0.10027799 0.22032855 -0.12123419 -0.41507527 0.21567787 0.26685032 -0.27707168 -0.2575594 0.30029744 -0.062232673 0.2198285 -0.14086078 -0.3045249 0.28975186 0.23264723 -0.2205487 0.3258965 -0.36238474
well -0.65763265 -0.32616872 -0.5907938 -0.38559884 -0.56134653 0.27705145 -0.19373094 -0.4188065 0.08292147 -0.42694345 -0.53785515 -0.94461423 0.67179054 -0.3327228 0.19908132 0.0917681 -0.17080417 0.28673258 -0.37519374 0.17204419
call 0.5829061 -0.44414815 -0.21739708 0.4272253 0.31695238 0.38762203 -0.16034779 0.19777842 0.055053294 -0.6670696 0.16769828 -0.31545907 -0.38316604 -0.560613 0.32039478 -0.07651856 0.38316348 0.1795133 -0.19225843 -0.45007506
ya 0.4623549 0.075340554 0.3516065 0.04578769 -0.8530224 0.46146715 0.23800556 0.298217 -0.55163735 -0.3278141 -0.38943473 -0.9963566 -0.12989408 0.26188782 -0.5275865 0.036411252 0.10579526 -0.3642243 -0.7753291 -0.15082826
night 0.56344426 -0.9122262 -0.6561067 0.7599649 -0.17672697 0.3780657 0.26979473 -0.24312906 -0.84803504 0.3160963 0.7298986 0.37551484 0.16274334 -0.5329758 0.82133394 0.2918617 -0.36550274 -0.39660043 -0.15995713 0.2541677
people -0.2625892 0.26119566 -0.50377256 0.6680708 0.23724632 -0.58575684 0.5267478 -0.40794718 -0.5380564 0.22027113 0.41483682 -0.1177423 -0.43587 -0.40924057 0.0010986343 0.4478738 0.25809312 0.25995177 1.0148101 -0.011791535
bastard 0.22736713 -0.15491349 -0.20856638 -0.16827571 0.048758175 -0.49823412 0.74857736 -0.06008968 0.0033826856 -0.5794441 0.33443043 0.36715865 0.67971814 0.36394787 0.21944657 0.19112368 -0.21655266 -0.12107228 0.6049888 -0.020117674
first -0.13830166 -0.03103196 0.016336603 0.4885042 -0.52412516 -0.29446495 0.019395087 -0.30572343 -0.2495754 0.2900176 -0.027650317 -0.46327487 0.24945107 -0.34665823 -0.23563871 -0.14446379 0.36517522 -0.0914929 0.11657972 0.12378889
finally 0.23315382 -0.1379855 -0.35248655 0.005564105 0.21757123 -0.35332766 -0.020384232 -0.5559553 -0.104206026 -0.39218122 0.61942345 0.11609357 -0.14022551 0.120363034 0.14595932 -0.38374248 0.118216045 0.37354028 -0.6079757 -0.048824944
read 0.003351981 -0.19009864 -0.40525296 0.7139581 0.022689816 -0.5588308 -0.90745884 0.39548096 -0.29103166 -0.31904685 -0.04178651 -0.53074014 -0.41609806 -0.40465447 -0.17758253 0.3090631 0.060880963 0.4034389 0.039631836 -0.46061864
pencey 0.36759606 -0.42053077 0.036910366 0.15351698 -0.18797712 -0.009293892 0.30644795 0.05699511 0.2529538 0.21004021 -0.18130076 0.28213933 -0.36297524 -0.29073033 0.0730557 0.35330272 0.48862422 0.39487118 -0.52548784 -0.5882236
mr -0.34900695 -0.6140616 -0.16168754 0.06429145 0.30818877 0.19151606 0.070106186 -0.12597656 0.27600673 0.41277328 0.15998709 -0.93429583 0.12754856 -0.5307049 -0.07033047 0.10887449 0.2857403 0.25122914 -0.8019438 -0.32663587
write 0.48358658 -0.6467709 0.20172225 0.71527314 -0.3298675 0.5513326 -0.26508215 -0.29127735 -0.2837271 0.28476626 -0.5703439 0.19611081 -0.2653575 -0.21324356 -0.13252717 0.19918698 0.0450792 0.53055406 -0.39451423 0.011792472
door 0.06667072 0.13774596 0.079833895 0.020588188 -0.18144622 -0.8617705 0.19831757 -0.27916268 0.30670717 -0.42871577 0.7319988 -0.028817464 -0.13740052 -0.03594151 0.03674137 -0.021591041 -0.01731228 0.30102688 -0.46995103 0.4064167
away 0.19474405 -0.51256585 -0.18678908 0.023270171 -0.26911092 -0.40014735 -0.47168073 -0.05413323 -0.553311 -0.37832385 0.25639403 1.0094061 -0.19769228 -0.012775252 -0.11295698 0.34177572 -0.045139246 0.79269946 -0.28806022 -0.086297646
everybody 0.19329311 -0.4682705 -0.2216033 -0.286237 0.22846858 -0.45700034 0.36539972 0.13530128 0.52875954 -0.24866332 0.6331382 -0.12856106 -0.23875287 -0.41780233 -0.22274056 -0.57118773 0.6719316 0.10624643 -0.31752542 0.09637887
near 0.5780966 0.1932335 0.07904474 0.12662585 -0.18932728 -0.25742382 0.15599357 0.23106308 -0.38632822 -0.039190017 0.15457003 -0.43923634 -0.24334691 0.021605719 -0.40426967 -0.44814995 0.46595532 0.61337155 0.014648678 0.15658702
movie 0.34531945 -0.21858098 -0.1925555 0.35966897 0.21834622 -0.66731113 0.06645693 -0.0022148227 0.19869405 0.25775236 0.47443557 0.03881277 0.05467427 -0.28716773 0.06974503 0.18393838 0.9085604 -0.119337745 0.26765954 0.19154829
name 0.093570836 -0.08821314 -0.7814104 -0.4107881 -0.015484212 0.4281881 -0.08225392 -0.15648928 -0.4445797 0.15374202 0.21418034 -1.0461003 0.37426528 -0.19611545 -0.0025474713 -0.00034299327 -0.17831911 0.319274 0.7886061 -0.4628267
show 0.08826557 -0.14885673 -0.06415264 0.15422994 -0.0076560206 -0.1690092 -0.011670347 -0.039494727 -0.05316121 0.03463532 0.95240533 -0.04554651 0.2759285 -0.19178629 0.17479311 -0.05584118 0.1968025 -0.06658455 0.053250305 -0.20398855
hardly 0.5497326 0.81086284 0.86566377 0.4988322 0.2249504 0.17822056 0.56836754 -0.5814746 -0.87512594 -0.10051322 -0.21648398 0.018761177 0.46467724 0.7655842 -0.22706774 -0.09417672 0.55192536 0.83041435 -0.048988305 -0.09966588
listen 0.29873738 -0.15172549 -0.27350628 -0.21530306 -0.08088039 0.18167217 0.36755848 -0.53283834 -0.5100282 -0.20753519 0.029546967 -0.5297205 0.05061011 -0.16480722 0.4468124 0.028039496 -0.053034883 0.014039286 -0.56082135 0.05962327
kind 0.22097966 0.03810321 0.041996926 0.5646042 -0.07404464 -0.15651469 0.3483449 0.13895105 0.077127315 0.09082007 -0.02051133 0.0764877 0.0022118764 -0.40118083 -0.30617377 0.2991053 0.4853443 0.24453503 0.21433064 -0.18622136
book 0.29786503 -0.26228955 0.13828205 0.4788108 0.39478064 -0.012438053 -0.18610923 0.02713557 -0.0063824435 -0.29781532 -0.24473082 0.04922192 -0.10841123 -0.49938723 0.21140572 0.26181194 0.56950575 0.40852803 0.2821272 -0.314522
stop 0.22619961 -0.21746248 -0.3389039 -0.17797664 -0.13179505 0.29201058 0.3251752 -0.3228017 -0.39629483 -0.12151865 -0.32448253 -0.5854233 -0.12555629 0.08946395 -0.1593508 -0.09062229 0.86506295 -0.07342919 0.24948525 -0.15590943
stick 0.06467365 0.60260963 -0.7032614 0.57368726 0.1201701 -0.57222563 0.14675574 0.16453066 -0.51595366 0.5823996 0.24254258 -0.118646085 0.21618967 -0.22812556 -0.41305366 0.29201669 0.036607753 0.19435808 0.5211088 -0.32619646
long -0.049607348 -0.37552613 -0.5364401 0.016890654 0.09790415 0.019197604 -0.16799156 -0.27156132 -0.19028158 0.023060298 0.14119877 -0.14138457 -0.044214427 -0.49274248 -0.2206406 0.18587527 0.0537129 -0.04580399 -0.2809993 -0.21919373
meet 0.013579313 -0.08032707 -0.17267714 0.36608294 -0.18502331 -0.011522393 0.077587575 -0.83332556 -0.041664597 0.06661751 0.32442194 -0.40840036 -0.27752632 -0.14364918 0.1321867 -0.35966069 0.21686226 -0.14925936 -0.11358853 -0.11395764
bad 0.7000064 0.08898627 0.41593927 0.115256146 -0.2746332 -0.60965157 0.5286798 0.38385627 -0.53014827 0.4533304 0.07114564 0.20358406 0.7473547 0.15896884 0.06462599 0.37217864 0.51846516 -0.084476106 0.12997746 -0.2359399
turn 0.2407937 0.018036762 -0.0013957699 -0.3379643 -0.073247425 -0.3131178 -0.03311969 -0.16415268 0.02608997 -0.44373438 0.9736863 -0.12885956 0.31434643 0.06868491 -0.1350993 0.07922226 -0.52552843 -0.060083237 -0.6679471 0.25058705
saw -0.20017824 -0.51932687 -0.9298432 0.03199656 -0.38303602 -0.76206654 -0.6247283 0.12544854 0.100764185 -0.2457707 0.16866721 0.24550912 0.20874238 -0.26043537 0.3300852 0.23829684 -0.17088753 0.19383226 -0.49821058 -0.012418274
year 0.41958183 -0.13123922 0.068741605 0.28198752 0.12987415 -0.059936773 0.0956819 -0.17638035 0.17661396 -0.15850247 0.83361375 -0.20014855 0.11383226 -0.116432585 0.06450689 0.04931648 0.9656931 -0.16969433 0.2777727 -0.20992418
sally 0.28681016 -0.83291644 -0.30967882 0.09793918 0.0927458 0.4444262 0.09121211 -0.52555484 -0.18762425 0.37610495 0.06681659 -0.45030877 -0.091489874 0.06408366 0.3826857 -0.34737653 0.45560536 0.22526014 -0.8006599 -0.12621209
jane -0.52646494 -0.9093652 -0.56100446 0.5379137 0.3282617 0.5115496 0.8182006 -0.696573 0.04481336 -0.21940732 -0.31568417 -0.8263585 -0.38529697 -0.038333043 0.029534642 -0.064135894 -0.2226205 0.045064352 -0.3339699 -0.55431604
lousy -0.1379225 -0.2624072 -0.71835953 0.59653664 -0.51840836 -1.0426378 0.3755887 0.7140451 -0.2725686 0.24041957 0.3503636 -0.073193766 0.122582994 0.44031575 -0.6073512 -0.64454883 -0.48790392 0.60764635 0.37356654 0.08084768
new 0.2598529 -0.26853248 0.67861855 -0.10309291 -0.35123095 -1.0357319 0.1797642 -0.48899543 -0.5472439 0.5453977 -0.11479188 -0.3260351 -1.0444053 -0.24873915 -0.3644062 -0.046462547 0.8327797 0.066801 -0.23046687 -0.25920802
sometimes -0.46061084 -0.08947324 0.5701999 1.0371734 -0.52175486 0.43107873 0.71627736 -0.62458587 -0.41630715 -0.12420194 0.7362859 0.58605224 0.34885633 -0.30691245 -0.48941016 0.2597258 0.37013912 0.21681046 0.73117834 0.58263624
dough 0.01828908 -0.12099589 -0.03537751 0.49842444 -0.37325072 -0.10058879 0.32662567 -0.10265178 -0.13594016 0.123603575 0.2573161 -0.7374847 -0.17105487 -0.10820436 0.14501865 -0.077732794 0.9207112 0.039411176 -0.14612623 0.18899728
mind 0.40629128 -0.30536357 -0.18278185 0.48549703 -0.14813973 -0.5848952 0.45389333 0.14901774 0.38446492 0.37447935 -0.24112876 -0.7709287 0.101498015 -0.89392155 0.08231822 -0.344207 -0.20465848 0.57135063 0.54660106 0.18824145
nobody 0.31020567 -0.13097776 0.0134260105 0.41584882 -0.21510786 0.31527615 0.31151828 0.15321961 -0.26148328 0.2049308 -0.078714415 -0.08185467 0.3465216 -0.336075 0.068723954 0.49820462 -0.3135177 0.48377806 -0.14092132 -0.19897316
suppose -0.20089445 -0.16769189 0.5013694 -0.14717455 0.16990027 -0.20852171 0.33734658 0.04370035 -0.4031807 -0.23333044 -0.13073675 -0.19647487 0.38199863 -0.37925196 0.09742586 0.36358577 0.16287835 -0.10784701 -0.1845191 -0.17192149
phony -0.37060928 -0.5055204 -0.03981309 0.41489786 0.0016388459 -0.9696901 -0.09772502 0.2665384 -0.35008952 -0.3377321 0.2120066 -0.42786077 0.5064708 0.011454485 0.19460168 -0.10528547 0.56818736 -0.15825239 -0.13632691 -0.41749525
watch 0.09948807 -0.060704563 0.16845979 0.26209557 -0.23537305 -0.2674615 -0.13663 0.1461163 -0.41549137 -0.4233279 0.672847 -0.093571015 0.26143104 -0.08467687 -0.29761454 0.27919605 0.049339466 0.2879674 0.27788004 -0.21319194
head 0.036956612 -0.18163197 -0.34690103 -0.13344724 -0.1325985 -0.5302 -0.10772179 -0.23366909 -0.51317114 -0.16948332 0.44629404 0.9143844 0.6247268 0.84328485 -0.5353234 0.10718699 0.21937948 -0.09202381 -0.17200108 -0.3973703
u 0.037009582 -0.12965961 -0.36015707 0.9757854 -0.005240031 0.17341217 0.23181266 -0.5735652 0.37308365 -0.015288526 0.27568957 -0.60317105 -0.09877874 0.07379326 -0.22886695 0.01060764 0.5971705 0.21899697 0.58547574 0.23119216
every 0.20586403 -0.1890674 -0.15062393 0.40913546 -0.0690131 0.24665637 0.22919434 -0.09554826 -0.04083893 0.19661163 0.018759713 -0.23183613 0.5026656 -0.10089518 0.25339812 0.042206332 0.62988985 -0.18038204 -0.62446487 -0.0048310095
terrific -0.4034747 -0.47426224 -0.5203995 0.33035216 -0.51292044 0.074270956 0.15353069 0.55459446 0.0602194 -0.16030331 0.16517448 0.0026697067 0.42603326 0.07441169 -0.38440177 -0.22060445 -0.24355882 0.4713079 -0.09609174 -0.078246124
anybody 0.025129795 -0.108870655 -0.46351212 0.2926716 0.12836066 -0.0596519 0.24025567 0.052263856 -0.170288 -0.02399038 -0.036901787 -0.59825194 0.06796687 0.1156143 -0.03137082 0.3175845 0.020682655 0.48448458 0.1491395 -0.15926956
stupid 0.4171178 0.41084632 -0.325773 -0.18490955 0.3778905 -0.721581 0.5145206 -0.46009284 0.2882161 -0.23369417 0.38118872 0.4204301 0.5642341 0.51669 -0.47903273 0.09401596 -0.25905344 0.37753972 0.48758885 -0.43372172
life 0.044828 -0.5559877 -0.62673765 -0.51234543 -0.83480245 0.42918706 0.17587684 0.35206035 -0.13247484 -0.53583777 0.35297373 -0.31122723 0.46886122 -0.04949062 0.06456501 -0.12857588 -0.044642586 -0.35687277 0.3073935 -0.18289779
till 0.40941295 -0.39344355 -0.38877827 0.36150965 0.2621706 -0.18637832 -0.053611267 -0.42941904 -0.34914997 0.08620236 0.067348465 -0.33809575 0.014641027 0.15635909 -0.091800384 -0.09977917 -0.30266455 -0.0072789583 -0.42905632 0.6909757
find -0.09686726 -0.035239078 -0.3339169 0.4940803 0.00450561 -0.5834284 -0.16972017 -0.25222945 0.13148776 -0.17105073 0.26836243 -0.3518163 0.038748816 -0.17629063 -0.06735861 -0.36561078 0.36148825 0.22595355 -0.7326749 0.28049153
voice -0.26277143 -0.6482771 -0.17528237 0.3768521 -0.06568061 0.03973702 0.045967698 -0.64976496 0.4420787 -0.12421489 0.15661559 0.58499575 0.62209356 -0.4890532 -0.11904419 0.29438177 -0.62205005 0.21527907 0.30548793 -0.59901905
practically -0.009273404 -0.26457483 0.04164764 0.042300656 -0.29584464 -0.35719627 -0.11802243 -0.16323787 -0.15762691 -0.029352875 -0.049557917 -0.10946598 0.20588353 0.06983755 -0.19888537 0.3939285 -0.26033777 0.14645082 -0.4156183 -0.4745114
care 0.32843977 -0.11347925 -0.19770013 0.9076085 -0.012851854 0.24162011 0.5644169 -0.15483545 -0.34847662 -0.060953412 -0.071995504 -0.5001045 0.112661935 0.18145019 -0.13431434 0.18001996 0.36816567 -0.011162934 0.010882903 0.05692664
open 0.36426654 -0.26790357 -0.09520146 0.07445505 0.029194614 -0.27743962 0.36077207 -0.1776869 -0.6410357 -0.28010413 0.038236406 0.082482144 -0.29061544 -0.2880548 0.11094355 0.10419208 -0.71757543 0.55078155 0.3045108 0.030382993
trouble -0.034560826 0.010835477 -0.07095835 0.37396273 -0.18550894 -0.21989796 0.66679436 0.27820387 -0.14124368 -0.04799529 -0.06272977 -0.017592013 0.30010897 -0.2867649 -0.21170257 0.0890326 0.17218326 0.43900093 0.16006106 -0.37450314
antolini 0.16330785 0.06343305 -0.17417264 0.18975377 0.12515019 0.1031315 0.2381076 -0.12088422 0.19070973 -0.21491927 0.11878316 -0.15341584 -0.027842946 -0.31644678 -0.25109485 0.28622618 0.13068762 0.42407298 -0.6311826 -0.020520128
maybe -0.33651468 -0.51712483 -0.6654303 -0.4080981 0.27373233 -0.5877211 0.745216 0.04220176 0.16510747 -0.18412107 0.61073405 -0.23650655 0.13579649 -0.07636359 -0.2964194 0.018565504 0.62997353 -0.23758052 -0.7063624 0.5262492
side -0.21080188 0.41077355 0.4384407 -0.1538747 -0.27962065 -1.0609249 0.18909936 0.20460375 -0.1983969 0.0123905055 0.5465186 -0.20432271 0.48946646 0.014010452 -0.46071604 -0.3210376 -0.060453698 0.3511121 -0.29649904 -0.005008855
car 0.04691691 0.03061275 -0.09139668 0.0956959 -0.19622454 -0.19874305 -0.07205573 -0.2977013 -0.16043276 0.0069244234 0.524327 0.071989186 0.037075333 -0.16298935 0.07690933 0.12694035 0.3638584 0.14130218 -0.1837516 0.16638237
buy 0.18705481 -0.18779516 -0.14058435 0.16634451 0.12939265 0.007365929 -0.21638611 -0.42785406 -0.16897163 -0.24288067 0.38090974 -0.626416 -0.19928472 0.22001624 0.01934888 -0.022065056 0.54157495 -0.11832189 -0.46925497 0.3494942
day -0.009769657 0.260218 -0.482045 0.06565204 0.005118997 0.1366004 0.040558584 0.2059613 -0.2149311 0.0006462131 0.2784904 -0.5682804 0.0010545835 -0.2632664 0.39167646 0.26032004 0.5703012 -0.12271566 -0.09622201 -0.15188938
face -0.015576651 0.25229788 0.16445765 -0.24078669 0.059471097 -0.49307626 0.31563276 0.28601685 0.08632164 -0.34705916 0.28100398 0.25648543 0.41682777 -0.017171055 -0.61428666 -0.036759045 -0.67123574 0.52079624 0.3738386 -0.37915218
happen -0.43846977 0.07249607 -0.69048125 0.0073241633 -0.5567363 -0.486856 -0.046182357 0.35493314 -0.78344035 0.38322675 -0.24995303 -0.58586335 -0.11142508 0.35583794 -0.17452024 0.29008925 0.46209967 0.052003868 -0.1375307 -0.08129768
kill -0.47640538 -0.54378337 -0.39684033 0.8483172 0.4875822 0.13434528 -0.7853559 -0.29349768 -0.36392274 0.10366553 0.32230672 -0.6561441 0.4885201 -0.39016992 0.41860187 0.32501748 0.4436731 -0.62023246 -0.17375557 -0.50939953
drink 0.04421356 0.6249671 -0.6546093 0.58579946 0.39152527 -0.30206373 -0.013198522 -0.39860186 0.5943537 0.1746549 1.0064518 -0.2668519 0.3644933 0.31596923 0.06494016 0.4305467 0.75498956 -0.47242165 -0.52023166 -0.43607557
remember 0.24158661 0.26163483 -0.20226824 0.17422909 -0.21105324 -0.120088495 0.033167806 -0.28024158 -0.14863993 -0.3222821 0.4191453 -0.1853187 0.15228428 0.19230552 -0.41181055 -0.0870465 0.26735792 0.12264009 0.12740678 -0.008587871
wait 0.20771524 -0.21000497 0.48073202 0.1912986 -0.34952137 -0.19173212 0.37092248 -0.55589885 -0.6630968 -0.38604936 -0.032813285 -0.39770207 0.12573649 -0.0019746472 -0.19928876 -0.02329872 0.086055115 0.2198755 -0.4617177 0.4397172
cut 0.0029962054 0.15680377 0.008645787 0.15041703 -0.3927698 -0.55004597 0.37360838 -0.40689772 0.27585018 0.11021268 0.41223374 0.257602 0.3219114 0.25968835 0.1991371 0.2002872 0.31260744 0.31524116 0.19776885 -0.19458972
answer 0.24453112 -0.22200364 -0.24934042 0.44572988 -0.26177827 -0.3088208 0.177472 -0.29512814 -0.19227614 0.20754905 -0.08252588 -0.47097746 -0.06031623 -0.3085245 0.057828102 0.10670615 0.2247395 0.08395491 -0.042853713 -0.14896409
allie 0.27251205 -0.51170486 -0.40112838 0.22337562 -0.057407994 0.022309981 -0.33379686 0.6038205 -0.32817766 -0.24046485 0.119659804 -0.7065009 0.74557245 -0.20551482 0.15067093 -0.39962527 -0.043105237 0.47012275 -0.33035213 0.0824774
hate -0.009175454 0.053116083 -0.1903905 -0.03223853 -0.45097932 -0.30265516 0.7683774 0.5173578 -0.023395011 -0.3338549 0.19296539 -0.28746608 0.084944576 -0.19474499 -0.30126378 0.42358884 0.334891 0.03227885 0.3772241 0.083371215
figure 0.07796829 -0.20558947 0.10260486 0.47899422 -0.01516532 0.06556477 -0.19781621 -0.19818883 -0.06844691 0.061145972 0.29889664 -0.5708145 0.11810239 0.043066 0.015061552 0.039473165 0.76218987 -0.013167169 -0.7616347 -0.09428642
five -0.1924542 -0.45065555 -0.14323747 0.83092016 0.72479254 0.39514273 -0.43027598 -0.27875978 -0.73577005 -0.56457394 0.5944268 -0.21328714 -0.19924769 -0.08577196 0.078879066 0.12858546 0.43030456 0.40656444 0.46437052 -0.047526684
hey 0.14304653 -0.36888096 -0.7846866 -0.12623958 -0.4174952 0.23739822 0.040098365 -0.26590544 -0.8190906 0.15067933 -0.25829095 -0.7670112 -0.28322437 -0.66204226 0.7535342 0.15515678 -0.43697357 0.20609854 -0.39152485 -0.3281431
floor 0.1780347 0.060602635 0.039581586 -0.11892169 0.038126975 -0.8608624 -0.005027672 -0.18281619 -0.6970329 -0.23525287 0.45364043 0.08837841 0.06500707 0.04938984 -0.085654244 0.02384168 -0.6765223 0.28377557 0.07983447 -0.24152207
date 0.15150233 -0.4878657 -0.09130538 0.0930519 -0.2517788 -0.12952487 0.32719052 -0.08378773 0.14447771 0.05492647 0.3083324 -0.36182442 0.32797536 0.29430363 0.073471956 0.20916842 -0.09175071 -0.072024755 0.031363692 -0.19945402
drive 0.4024859 -0.36575797 -0.27233967 0.14514779 -0.053827144 -0.28441826 0.15865287 0.007715094 -0.075158715 -0.14313392 0.7204099 -0.011947433 -0.09349911 -0.34845945 -0.009796537 0.17695394 0.1897186 -0.28339055 -0.013730595 -0.32486308
horse -0.07618101 -0.49112946 0.31337237 -0.009381666 -0.12692094 -0.56666803 0.14240262 0.24968529 -0.18812914 -0.3833632 0.5475964 0.036555152 -0.024764739 -0.2374845 0.0026471461 -0.07294298 0.16664408 0.34931132 -0.15656546 0.0808763
game -0.08612145 -0.34843823 -0.033438653 -0.07493884 -0.32181308 -0.18097469 0.2571804 0.1305086 0.22935407 0.17261243 -0.22145258 0.20435943 0.38571838 -0.38716096 -0.2231307 -0.08325574 -0.007781368 0.3280566 -0.31359825 -0.5352372
another 0.2649548 0.54391307 -0.57348144 1.1775423 -0.2016792 -0.04688526 0.02450279 0.09585718 -0.059122138 0.2413265 0.65903455 -0.2267732 -0.17098287 0.48343998 -0.1557546 0.8475935 -0.33621097 -0.30786523 -0.4390535 0.03932823
hot 0.2050025 0.020978397 0.46901062 0.23397903 0.06648776 -0.050170675 0.3098089 0.14451839 -0.28709522 -0.04427517 0.05983446 0.03220806 0.3453463 -0.18545723 -0.14857018 0.372185 0.2875455 0.36807638 -0.028197234 -0.17233181
reason 0.066022865 -0.059420764 0.14855824 0.30386785 -0.21318282 -0.092748426 0.3203199 -0.30524737 0.6086165 -0.21348311 -0.13640115 0.42268035 -0.19840094 -0.41906688 -0.4030451 0.50366235 0.4515765 0.047589812 -0.023814457 -0.35277346
park -0.12962402 0.06854783 -0.12730753 -0.1405752 -0.5499242 -0.53113735 -0.18223877 -0.43994448 0.26183888 0.15244582 0.7014699 -0.5607869 0.20078698 -0.35640085 -0.038497783 -0.43466064 0.5658222 -0.013908605 -0.56613696 0.72896147
phone -0.39840856 -0.8082679 -0.11457568 0.35169527 -0.2610214 -0.4765509 0.4274542 -0.30670926 0.21001962 0.13473228 -0.017689751 -0.4514816 -0.3725522 -0.25786567 -0.20177658 -0.5046329 0.91109216 -0.17838491 0.13924925 -0.24941532
dance 0.18634206 0.18092868 -0.2970153 0.21307962 0.12961188 -0.57487315 -0.03592231 0.012742994 -0.14772676 -0.41218665 -0.19796316 -0.46145478 0.35701686 0.0891679 0.15616903 0.26460868 0.12451653 0.015729757 0.0291114 -0.3221958
cigarette 0.40858567 0.6484758 0.12252987 0.38717347 0.30655318 -0.7130175 0.12511608 0.050472416 -0.43362737 0.24424857 0.18620352 -0.6909376 0.15014355 0.005795602 -0.17516683 0.14434965 0.101747684 0.039258055 -1.1103892 0.30799282
b 0.18112537 -0.45512688 -0.6560737 0.5212823 0.33115053 0.53868955 0.2987023 0.43456566 -0.3817491 -0.42729115 0.83591163 0.12274979 0.18734337 -0.32551122 0.065331236 -0.03994908 0.659571 0.46789515 -0.5933084 0.42638537
window 0.4695728 -0.1111409 0.042972587 -0.17269406 0.3108034 -0.5242587 -0.06408942 -0.2475815 -0.6920414 -0.6633287 0.34533277 0.49768355 0.09086042 0.16856495 -0.17633224 0.090375364 -0.33587277 0.08361206 -0.47853187 0.26633123
chair 0.15381828 0.15948504 0.012152794 -0.4782564 -0.28129014 -0.6211306 0.19663793 0.16715455 -0.33412907 -0.22612591 0.38229102 -0.07452153 0.2946184 -0.21910308 -0.106032655 0.2328757 -0.6534469 0.3327564 -0.4703924 -0.029823951
couple 0.49197862 0.37533122 0.01815175 0.1817956 -0.044738628 0.17035481 0.16717987 -0.39477322 0.094008446 -0.32038495 0.071770445 -0.59968305 0.3012899 -0.090090126 0.09460259 0.17302935 -0.036951218 -0.19368544 -0.47111836 0.06813116
light 0.14120954 -0.05873732 0.40780923 -0.2351322 -0.45733204 -0.50242436 0.1553964 0.08912575 -0.20859464 -0.3001364 0.3040633 0.13455956 0.053343672 -0.019247994 -0.33151573 0.008585807 -0.57259315 0.11621682 -0.49234065 0.18334834
father -0.06521806 -0.040711462 -0.7256592 0.21075103 0.008616041 -0.085428275 0.19744349 -0.3333084 0.41502693 -0.6443614 0.22557403 0.2095795 0.12507643 -0.26597217 -0.08670162 -0.01444911 0.13812317 -0.24239877 -0.4471538 0.27452213
buck 0.368453 -0.7970826 -1.1069238 0.74224555 1.0692413 0.3200395 -0.44214866 -0.02961036 -0.610955 -0.9022218 0.087764986 -0.093840815 0.120077975 0.35485643 -0.30055502 -0.21219243 0.883767 0.047104593 0.6126964 0.36219212
except -0.18488371 -0.022354083 -0.47637105 0.15412228 0.23883927 0.0883009 -0.038286597 0.12899017 -0.4451304 0.19286014 0.43063375 0.19452648 -0.10701597 -0.35657674 -0.0005426714 -0.114043124 0.42044935 0.75257343 -0.37962922 -0.2690724
coat 0.56502587 0.7869654 -0.30069783 0.61030376 -0.12583725 -0.658102 -0.3287342 -0.10575862 0.020774527 0.2775173 0.50979346 -0.04372877 -0.3112702 0.2653269 -0.54141027 0.5312003 -0.2604434 0.40027392 -0.50928533 -0.034230776
holden 0.0663695 -0.3986569 -0.3926469 -0.52006584 0.010988164 0.3730054 0.11924776 -1.0005925 -0.12547816 -0.1668483 -0.5409423 -0.8217684 0.23980117 -0.32531038 -0.22591634 -0.5641488 -0.055472992 0.51865983 -0.4286127 0.1056986
minute 0.20275225 -0.056309167 -0.3003771 -0.05821665 -0.39817986 0.15183991 0.07168527 -0.54191035 -0.16793382 -0.5134011 0.007925117 -0.352351 0.0842826 -0.12984979 0.011937533 0.26678944 -0.03831734 0.00773469 -0.35552222 -0.05949594
everything -0.22279713 0.2975074 0.12734453 0.35953823 -0.2325386 0.07724761 0.24046345 0.41274124 -0.6615283 -0.025511445 -0.38700914 -0.4005827 -0.31580752 -0.12718531 -0.6411703 -0.06472874 0.36977485 0.05616096 0.05860169 -0.4839891
ten 0.47468 -0.91375697 -0.6617799 0.19884391 0.28338754 0.08570552 -0.56006056 -0.23396502 -0.34885743 -1.0286866 0.21972318 0.70151174 -0.10715996 0.3060751 -0.04046865 -0.023098303 -0.10123104 0.29405206 0.22498105 0.4375689
hold -0.29687795 0.08251076 0.15174615 0.19770704 -0.40430257 -1.3125747 -0.49922758 -0.0136506315 -0.6368231 0.37379292 0.241578 -0.23251279 0.54526395 -0.14128552 -0.28088334 -0.08268127 0.04991329 0.10167467 -0.17363283 -0.2812799
least 0.26084417 0.13629597 -0.15434384 0.3193426 0.22511485 -0.048517503 0.1559837 -0.28823388 -0.29423162 -0.20657207 0.004846528 -0.570375 0.18976344 -0.038536914 -0.09301845 0.19065821 0.3298561 -0.037480984 -0.21941717 0.013981093
sorry 0.07429265 -0.047177315 -0.3875244 0.23221293 -0.18066227 0.11246738 0.18553554 0.10812066 -0.32763556 -0.22878063 -0.2165238 -0.31626374 0.18893787 -0.4698873 -0.18763681 0.2185081 -0.15739726 0.15913284 0.054371733 -0.40126374
york 0.36838692 -0.4902445 0.5348768 -0.032171585 -0.41385153 -0.7509967 0.009630749 -0.38691172 -0.3421594 0.5422249 0.44309115 0.038499586 -1.0346881 -0.11979631 -0.39863473 -0.20583758 0.45464522 0.1581771 -0.59313446 -0.2943602
certainly 0.12540002 -0.06652611 -0.88815427 0.11227337 0.11272446 0.057184797 0.4246711 -0.147818 0.08397561 0.0059485664 -0.28944573 -0.22442408 0.6559995 -0.5098391 -0.06316415 -0.3684218 0.28329033 0.5847802 -0.17762192 -0.10804844
part 0.0022948955 -0.014337802 -0.19322169 0.13226166 -0.19017063 -0.30578044 0.25064725 -0.064242475 0.03826269 -0.03684375 0.45757285 -0.0005351963 0.47942865 0.035309613 -0.43100217 0.19481263 0.0854697 0.09678866 -0.26076913 -0.09910377
brother 0.056511357 -0.5210605 -0.5172331 0.4956878 -0.29963645 1.0572555 -0.23422326 0.4646365 -0.15830143 -0.49731898 0.36953807 -0.78032446 -0.089581326 -0.21442695 0.023674024 0.09802495 0.01147674 0.7200182 -0.17212199 0.0069745127
parent 0.18560877 -0.08966094 0.19659926 0.10281938 -0.23495214 0.20236735 0.067657255 -0.2966024 -0.29223686 0.24331732 0.16331974 -0.21913134 0.060948703 -0.21977098 -0.0077979616 0.18754926 -0.024896018 0.2841258 -0.20137909 -0.16802984
christmas 0.39600682 0.14296298 0.029893044 0.38750288 -0.36366245 -0.35573816 -0.13146722 -0.09514466 0.39015025 0.29329982 -0.039624024 -0.28187093 0.064549975 -0.22183236 -0.34363803 -0.052170902 0.47896853 -0.28956613 -1.0726734 0.054532513
oh -0.029803153 -0.37052092 -0.84339565 0.3324444 0.01729548 0.62900776 -0.0882802 0.26072162 0.21011983 -0.6322902 -0.47496518 -0.8337326 0.63292384 -0.46160677 0.1464836 0.22652012 0.7306053 -0.28107655 -0.1419217 -0.95043635
sleep 0.1730666 -0.37941203 -0.088894926 0.43539923 -0.20711753 0.24548852 0.30346793 -0.11127422 -0.2362841 -0.08577623 0.39700744 -0.27665344 0.19866659 0.23085172 0.0186685 0.47830045 -0.4786175 0.16616973 -0.47411954 -0.066353805
truth 0.22056405 0.38889754 -0.15837571 0.2559753 -0.0016148803 0.13312298 0.22333391 -0.1316001 -0.119081125 -0.3761676 -0.4526609 -0.009364085 0.08976187 -0.12336946 -0.2658324 0.14129929 0.38141817 0.38296926 -0.33733886 -0.5943616
last 0.12224871 -0.21453142 -0.100365914 0.52418894 -0.16637698 -0.23690115 0.09935302 0.08004955 -0.06252603 0.073344246 0.26826903 -0.3529171 -0.18407279 -0.10967166 -0.13431771 -0.15691355 0.39326203 -0.14648072 -0.04586114 -0.08866302
picture -0.06980589 -0.19865568 0.034717236 0.65348965 -0.21680477 -0.2740259 -0.028161492 -0.371381 -0.16035716 0.4357347 0.28276074 -0.08492086 0.100429565 -0.02882777 0.025573231 -0.06525222 0.17683885 0.1305954 -0.20767803 0.24372439
conversation 0.10403645 -0.32950172 -0.6432501 -0.1709626 -0.13005333 0.038405158 0.5011017 0.13582127 0.033315375 -0.08659563 0.5027488 -0.16157846 0.066571966 -0.23984925 0.29293853 -0.27219403 0.31632867 0.23285614 -0.34699386 0.40246296
hair 0.25624353 0.30158237 -0.472997 0.08369027 -0.090677544 -0.53580576 0.263511 0.36506504 0.6765476 -0.36898986 0.9071335 0.043569203 0.18025215 0.28722668 -0.20884398 0.09002321 -0.011396759 -0.10187159 0.0940072 -0.6793549
sore 0.27230987 -0.09207497 -0.116393596 0.13746902 -0.28895327 0.10390702 0.3330796 -0.21208666 -0.3446992 -0.22697058 -0.05975729 -0.0835635 0.1934882 -0.22754404 -0.21400322 0.27667984 -0.17276119 0.02178238 -0.049139302 -0.1629863
suitcase 0.0072499285 0.1611507 0.020495137 -0.015273532 -0.19582567 -0.62516755 -0.14601685 0.02869108 -0.13282928 0.092107415 0.4146989 -0.21440473 -0.020039625 0.24629025 -0.24091345 0.38809043 0.34807122 0.18976073 -0.50495976 0.101330265
smoke 0.4323256 0.3688179 0.14715435 0.576663 0.042783424 -0.4091255 0.2988245 -0.22137444 -0.5369751 0.29901266 0.36946028 -0.108336076 0.16187632 -0.10472088 0.108219855 -0.06787343 -0.117361575 0.11199899 -0.35550368 -0.22861478
bore 0.122875005 -0.26527053 -0.2370164 -0.1267338 -0.15820153 -0.10382153 0.4796118 0.119331345 -0.3628047 -0.14221516 0.14321242 0.090347156 0.61059535 0.037362345 -0.2775335 0.26615942 -0.034589123 0.21955557 -0.08329384 -0.28924066
win 0.17954837 -0.51477796 -0.16751182 -0.15143615 0.20373878 0.09811398 0.13905883 -0.084032565 0.034075342 -0.23845169 -0.023005735 -0.363977 0.49625483 -0.4660028 -0.02084058 0.26619002 -0.32774544 0.031505708 -0.42460346 -0.07608629
spencer 0.23857525 -0.23208065 0.044325773 0.23320703 -0.1908383 -0.061055187 -0.08854327 -0.223272 0.26421753 -0.12384989 0.27458185 0.019465229 -0.13309343 -0.40562183 -0.17329206 0.26768857 0.1040364 0.33629695 0.0035355366 -0.15472884
bit 0.07353798 -0.06997493 -0.23486337 0.18513843 -0.50208807 -0.4523115 0.23376654 -0.10175312 0.12392645 -0.40282044 0.69264615 -0.091782026 0.42440286 0.057135865 -0.09265222 -0.046017125 -0.1596883 -0.16056046 0.25604215 -0.14480235
chrissake -0.16534913 -1.1102594 0.71270525 0.7162299 -0.8800375 -0.21917553 -0.5129644 -1.0933688 -0.899934 -0.16789977 -0.024200948 0.83586127 -0.6506172 -0.45668468 -0.7358398 -0.33905816 0.10209082 0.37745556 0.60584444 0.2962603
table 0.096488096 -0.14152712 -0.10194828 0.040943496 0.10471978 -0.71899605 0.038062114 -0.38364115 -0.09555073 -0.12083639 -0.01720962 -0.054863855 0.10257688 0.1848713 -0.08535072 0.08901782 -0.25163817 0.5486186 -0.3535529 0.26554224
late 0.12640099 -0.45219198 0.13818035 0.29049116 0.21715379 -0.029236294 0.022655854 -0.5222162 -0.36864161 -0.18824208 0.43924564 0.037001524 -0.02904111 -0.29475644 0.22949679 0.03816827 0.12512538 -0.19139922 -0.6107607 -0.19644848
elevator 0.06209258 -0.20767638 -0.03183737 0.21604775 -0.070430994 -0.32816747 -0.16544549 -0.1538756 -0.15524589 -0.25775585 0.29159427 -0.32293403 0.006259598 -0.045920525 -0.1790252 0.14345904 0.37407836 0.17337045 -0.49817514 0.31505588
somewhere 0.012109982 0.06880422 0.05526969 0.71732223 -0.24927999 0.0038104053 0.007876199 -0.18583995 -0.15920629 -0.061554722 0.3553363 -0.054963097 -0.2510176 0.053058904 0.2534354 0.14123777 0.53557724 -0.0402702 -0.39705637 0.06298131
house 0.27254948 -0.22572264 0.20468092 -0.21029004 -0.26235563 -0.31942135 0.33759427 -0.36565685 -0.17590809 -0.13646707 0.4633398 -0.28020862 0.09883108 0.012623788 -0.15620998 0.09841015 -0.13150872 0.085119426 -0.10882837 0.46007085
live -0.13447078 -0.18855932 0.30473176 -0.110100135 -0.07346012 -0.6755184 -0.12971812 -0.3820686 -0.19303256 0.42475387 0.34365517 -0.6091839 -0.46213025 -0.4191074 -0.1263947 -0.08751187 0.15944937 -0.0912992 -0.14842612 -0.1227291
guess 0.2051508 -0.5169362 0.43819156 0.025816822 -0.48237246 -0.14717072 0.13253772 -0.29723382 0.09903796 -0.6174239 0.34021258 -0.17161347 0.29520726 0.11769208 0.016415322 0.58251226 -0.21112078 0.017485049 0.6201315 -0.15750945
pick -0.1632221 0.21556515 -0.53954905 0.2541572 -0.021333912 -0.65208673 -0.22708914 -0.0047962083 -0.3799045 0.12893453 0.0123772435 0.17359541 -0.22146231 -0.0072972067 -0.5279344 0.41214377 -0.31102672 0.45934218 0.42931455 -0.61039114
hard 0.24558245 -0.14846082 -0.10986818 0.3550893 -0.4653243 -0.14907785 0.27963114 -0.27163827 0.40938312 -0.26874673 -0.57180935 -0.80412495 0.7367151 0.34353313 0.29892662 0.09844954 -0.23641202 0.73874265 0.59870905 -0.3507955
else 0.37531966 0.047072306 -0.18504202 0.16952592 0.10743417 -0.19942419 0.35414585 0.051808763 -0.35310334 -0.01796273 -0.21979608 -0.02643152 -0.034816936 -0.0012053569 -0.3138898 -0.012236416 0.21671024 0.16276856 -0.20162237 0.03623639
sure 0.49942094 0.16593893 -0.53276986 0.22399135 -0.014673362 -0.020762794 0.1032508 -0.6461973 0.05571806 -0.21058403 -0.10296467 -0.376988 0.2505055 -0.49108866 0.16942611 0.19349091 0.20149666 0.21170932 -0.011554056 -0.2206883
sake -0.0071729664 0.34212035 0.091125295 0.7836096 0.31395578 0.25706214 -0.19030324 -0.21766171 -0.4679463 -0.10990315 0.4265321 -0.8721486 -0.32578734 -0.5997076 0.04625842 -0.060939383 0.64051753 -0.13161862 -0.14005646 -0.48304313
might 0.21479473 -0.2540391 -0.06889311 0.34023643 0.048826616 -0.12238124 0.27476498 -0.25100884 -0.09606342 -0.09655255 0.290452 -0.7340462 -0.014051188 -0.09713035 0.052433107 0.12836657 0.021223858 -0.07323924 -0.60357016 0.010840912
three 0.12753725 0.344717 0.075448476 0.16514912 0.03084437 -0.3114793 -0.02215389 -0.229381 0.10575762 0.10256977 0.45293707 -0.12944573 0.053407036 0.111475065 0.15129444 0.2664299 0.62613297 0.30119038 -0.19014987 -0.066665076
terrible -0.09494089 -0.348175 0.23241255 0.37801147 -0.33506304 -0.38950887 0.38316214 0.02547304 -0.4590151 -0.0055102743 -0.10240767 0.04942381 0.45488527 -0.25574508 -0.41477963 0.08550184 -0.08724698 0.13426241 0.15302578 -0.23445423
exactly 0.27548623 -0.0928956 -0.1379276 0.12698601 -0.2952421 -0.16975588 0.17267677 -0.17169607 -0.05247125 0.18147428 -0.05065987 -0.09530685 0.35185307 -0.16292669 0.08105368 0.3105844 0.61126834 0.14249527 0.22582729 -0.27150223
front 0.11342141 -0.16821574 0.49807307 -0.035128385 -0.17318653 -0.5783892 0.008347662 0.061955195 0.09689491 -0.38602608 0.70173234 -0.13581306 -0.4395126 0.059462257 -0.13537297 0.32190007 0.53884274 0.3532117 -0.66717196 0.1413816
gonna -0.026193535 -0.67673206 -0.5271582 0.63884336 -0.3945537 -0.19649425 0.09258154 0.11049117 -0.22450063 -0.263385 0.06981935 -0.4732179 0.27129194 -0.19750355 0.5491322 0.32685456 -0.4168073 0.13555627 -0.2977473 0.35741818
stay -0.10749604 -0.053159706 0.14052022 0.15988155 -0.4582088 -0.5898339 0.07801576 -0.21598868 -0.30275905 0.3320276 -0.057897918 -0.30529705 0.023474991 -0.19569035 -0.2112427 -0.021941861 0.30582315 0.033932116 -0.30694637 -0.31760898
street 0.23249637 0.25364503 0.29128373 -0.34612682 -0.61453 -0.62122136 -0.04257601 -0.33903062 0.4764711 -0.042695343 0.6587919 0.07307098 -0.00065218343 -0.22073226 -0.3116138 -0.15706941 0.2460529 0.10824492 -0.50197434 0.40102613
sound 0.20826282 0.18604386 -0.23219153 0.32382032 -0.315006 0.0030546016 0.21398099 -0.16105232 -0.4413441 0.07144316 0.07525904 -0.14264987 0.14200926 0.05853681 -0.10514951 0.154966 0.2237386 -0.003211211 0.28620243 -0.26327404
dead 0.092719026 0.22127195 -0.5019339 0.26119912 0.35554877 0.19426754 0.13609217 0.010440307 0.094881095 -0.23259203 -0.2906765 0.08054275 -0.11751092 -0.7278758 -0.106771216 -0.040566258 0.9759253 0.21082087 0.21548201 -0.4983297
crap -0.28401485 0.1260952 0.011705383 -0.0138845295 -0.27613813 -0.41361228 0.30038026 -0.16956407 0.049345534 -0.1434286 0.1718035 -0.34310168 0.22039807 -0.06281377 0.18677858 0.08494525 -0.28387153 -0.06313933 -0.079184055 -0.05828529
half 0.40254158 -0.023503935 -0.112724036 0.6100807 -0.21160701 -0.113661095 0.16300048 0.3794903 0.007186281 -0.33274385 0.34648684 0.5026457 0.46044952 -0.1445446 0.3068016 0.20265178 -0.027093653 -0.020743143 0.00481651 0.006130499
c -0.012957088 -0.4484158 -0.2911339 0.04840675 -0.702093 -0.48432168 -0.2637518 -0.6943309 -0.032548778 -0.39277416 -0.6487114 -0.7127755 -0.44903284 -0.59058815 0.6013776 0.27111754 -0.11931348 0.24944921 -0.6389312 0.0436738
mon -0.05554248 -0.7733197 -0.29814455 0.3308531 -0.5365011 -0.2129081 0.040597267 -0.59087336 -0.4767024 -0.1452285 0.30232206 -0.72138023 -0.006369865 -0.6916596 1.2434609 0.04971961 0.10297216 0.28007472 -0.4369861 -0.15041824
yell 0.37344787 -0.2765055 0.13961332 -0.0140772825 -0.2741484 -0.55290806 0.336884 0.12471595 -0.117664896 -0.41773456 -0.12432234 -0.6566937 0.009752512 -0.029072942 0.083404966 0.3442468 0.28258875 0.06355765 -0.16375284 0.59798753
caulfield -0.082112014 -0.23588789 -0.69054246 -0.21299548 -0.2748582 0.1626127 0.17264548 -0.5492433 0.21975958 -0.30059564 -0.4459401 -0.77123904 0.32540774 -0.18506283 0.31291944 -0.63513887 0.25365317 0.5170029 0.19559419 -0.16648413
swear 0.36774892 0.08140051 0.1258737 0.5645643 -0.011889106 0.63561785 0.15570915 0.007061804 -0.1601566 -0.08126158 0.6228557 -0.5789512 -0.0019254078 -0.40340376 -0.13842772 0.5116553 0.7258081 0.052423738 0.33344904 0.05864133
break -0.09377048 -0.17759567 0.13956445 0.08146637 0.2394914 -0.39920115 0.09004039 0.11908277 -0.16384737 -0.45119822 0.49329567 0.17572871 0.24045753 -0.13661206 -0.3545134 0.26285082 0.34819952 -0.11054011 -0.25100252 -0.09195223
skate -0.00831317 0.3972922 0.047219224 0.22300555 0.4105215 -0.521715 -0.20982976 -0.30524117 -0.67730826 0.19107486 0.27063593 0.089887 0.26616 -0.3258871 -0.069895945 -0.048014008 0.73720187 0.07029209 0.12216688 -0.013629478
bag 0.16512924 0.26371157 -0.043916732 0.033041634 -0.19521083 -0.052993603 0.101681985 -0.3242313 -0.046240192 -0.24696128 -0.07151958 -0.49260303 -0.2651886 -0.3416727 -0.07333246 0.11080347 0.3770429 0.060064558 -0.78340054 0.14930734
run 0.04506059 -0.11945475 0.18692492 -0.24508196 -0.40519467 -0.27512336 0.1998877 -0.3611738 -0.14629556 -0.085455365 0.4181764 -0.2548141 -0.1687449 0.021680458 -0.04203673 -0.0607829 0.32729593 0.10692767 -0.7370686 0.3597372
end 0.10251908 0.5345969 -0.5108123 0.12751415 0.5148643 -0.29791766 0.13587919 -0.35428682 -0.16540039 0.20314436 0.16009542 -0.24033661 -0.22038966 -0.21509777 -0.025385601 0.30393004 0.25145826 0.108417824 -0.09948899 -0.3220325
chance 0.011134453 -0.34611833 -0.028003635 -0.029022774 -0.13841529 -0.0013842235 0.3190593 -0.1358043 -0.21673517 -0.23083973 0.03164594 -0.2104183 -0.222995 0.008897387 -0.34178254 0.15283121 0.31009173 0.1221619 -0.0014044938 -0.31985056
almost 0.41009712 0.012325816 -0.42274305 0.08659244 -0.50986946 -0.055462167 0.44630244 0.07696895 -0.34693193 0.016141031 -0.18289377 -0.023752283 0.021837743 -0.2924297 0.084477894 -0.08245996 0.2601344 0.14070639 -0.70283103 -0.38712117
drop 0.3930054 -0.2272023 -0.01594525 0.4279169 -0.19032617 0.11527373 -0.17284623 0.045345027 -0.50177294 -0.19380629 -0.22961101 -0.5623714 0.08227485 -0.0926506 -0.37583488 -0.2524421 0.33843926 0.24388735 -0.05480984 -0.07662878
sir 0.50878996 -0.5637358 -0.81579906 0.8431505 -0.04364214 0.2639534 -0.17594446 -0.64839596 -0.4712844 0.3922835 -0.9488938 -0.5717335 0.37228292 -0.32805252 -0.18814638 -0.14551227 -0.5934895 -0.09130171 -0.14607407 -0.24608628
may -0.024451112 0.12905885 0.09808152 -0.06604311 0.07441911 0.49182835 0.43673775 -0.34766966 -0.207709 -0.06368739 -0.16320805 -0.7156164 0.2540265 -0.25135618 -0.29415536 0.097398125 0.41551808 0.096767455 -0.4696483 0.02416938
nervous 0.54762375 0.061786026 -0.24416117 0.16429776 -0.029627027 0.032392465 0.59779096 -0.29719093 -0.35785538 -0.64982027 0.3851446 0.2714026 0.28517854 0.0072605796 -0.089060895 0.16141996 0.13931976 -0.20212534 -0.23417315 0.0076720207
hotel -0.045751657 0.3886358 -0.0883881 0.33860064 -0.4821355 -0.49227682 -0.11158754 0.2839046 -0.13087182 -0.3519195 0.108683206 -0.9499928 -0.47752234 0.24964474 -0.37593848 -0.22360243 0.11948012 0.14889447 -0.5954732 0.29926646
dress -0.2250735 0.2690997 0.40564802 0.12762518 0.34444976 -0.9607867 0.059203345 -0.098989084 -0.21989055 -0.15681244 0.3906774 -0.31064856 0.50306374 0.18446591 -0.06824896 -0.064147204 0.0024711727 -0.2263518 -0.6878084 -0.07737558
especially -0.100324035 0.11393116 -0.098815925 0.447668 0.19933017 -0.31485242 -0.014540432 -0.1355093 0.2494049 -0.32125664 0.47876304 0.040020823 0.31822667 -0.041341778 0.06566326 -0.008236887 0.5475024 -0.07686563 -0.02178357 -0.07221802
hour 0.17714447 0.021193242 -0.18513247 0.079958335 -0.31381482 -0.25195777 0.035632603 -0.17786166 0.1374909 -0.07745912 0.027959298 0.16527721 0.05146644 -0.01187845 0.004718502 0.22120228 0.28044268 0.35684714 -0.5160886 0.023006925
arm 0.018698009 -0.17397027 -0.11187313 -0.30349 -0.016178466 -0.6435019 -0.26883683 0.4592028 -0.39977866 -0.28848526 0.2544643 0.07704553 -0.06846018 -0.06585007 -0.34861887 0.008968755 -0.7064411 0.7801359 0.2458986 -0.5731183
mad 0.2562912 -0.4105005 0.16139893 0.57579297 -0.47781888 -0.23435485 -0.19447511 -0.51831204 0.29509333 -0.5048812 0.29015255 -0.10766241 -0.2118096 -0.53894585 -0.03387681 0.029637692 0.12393662 -0.26442727 -0.21531904 -0.18692933
cold 0.4160934 -0.10553834 0.033197775 -0.050962236 -0.1528959 -0.6597898 0.14818841 -0.20241041 -0.016508892 -0.07322806 0.374293 0.37927505 0.36231357 -0.3310923 -0.13619052 0.068119146 -0.036714986 0.22728713 0.1439621 0.013845658
shoot -0.32965556 -0.16178185 -0.21072303 0.40827146 -0.13460232 0.41161582 0.16216275 -0.1199022 -0.12954776 0.059642825 0.26894557 -0.4890235 -0.46388543 -0.20198904 -0.03453604 0.27325913 0.8935688 0.711534 0.18321124 -0.20398052
moron 0.22346053 0.36440304 -0.11561597 0.187747 -0.11715441 -0.47408628 0.2955944 0.25679538 -0.37409368 -0.40280768 0.36698112 -0.5571928 0.53519523 -0.29453585 0.2509199 -0.21895179 0.115419716 0.18430758 0.0755403 -0.54074913
shut 0.22705103 -0.22672641 0.18862233 -0.109517455 -0.107507594 -0.6295372 0.19925483 -0.07307113 -0.2874949 -0.2925482 0.029495008 -0.32712132 0.035121527 -0.06671977 -0.18917415 0.3059669 -0.34693974 0.27030337 -0.55026686 -0.058222167
mouth 0.3471863 -0.0033743659 -0.23975126 -0.2540409 -0.13008219 -0.6361399 0.2395912 -0.033241756 -0.012267191 -0.17042239 0.24428852 0.090392835 0.3684263 0.21854551 -0.17473906 -0.01089485 -0.42628625 0.20800057 -0.33945006 -0.14356482
die 0.041341066 -0.26118484 -0.11232194 0.28525496 -0.049159892 -0.23856863 -0.09015691 0.06339611 -0.0094165765 -0.15419938 0.21780914 -0.3480783 0.15053874 -0.14204161 -0.1040634 0.26936638 0.47351816 -0.39631352 -0.055427548 -0.07272672
cab 0.024767818 -0.059492588 0.40280852 0.08429642 -0.23523636 -0.4622959 0.011856488 -0.06948306 -0.12405765 -0.53534955 0.86944187 -0.4318227 -0.25309786 -0.06347545 -0.053185657 0.004022221 0.7312965 0.2145235 -0.21641001 0.24432765
besides 0.14972703 -0.3427859 0.16181354 0.3954902 -0.31126302 -0.14286073 0.32326475 0.19302706 0.19132309 0.0793041 -0.05641811 0.0695362 -0.2121658 -0.34830806 -0.28917742 0.103241324 -0.12616992 0.47229606 0.09410633 -0.2743042
best -0.09755514 -0.18050328 -0.5612953 0.12513235 -0.23150095 0.37651038 0.12247001 0.08942691 -0.3561768 -0.17760366 -0.26860493 0.02444034 0.06486251 -0.1556697 0.19632661 -0.13062596 0.50543904 0.056577332 -0.2382212 -0.25223124
matter 0.60632694 0.4031058 -0.30222803 0.19941135 0.61186135 0.19965146 0.590247 -0.35232967 -0.018116266 -0.07406634 -0.34994406 0.21789625 0.206239 -0.36260715 0.07759826 0.26729384 1.0671643 0.023350129 -0.13699464 -0.45229292
dark 0.42962041 0.20950273 -0.085609585 -0.15111591 0.2458723 -0.7309594 0.2816829 -0.091273405 -0.28723177 -0.047576934 0.49375018 0.10452174 0.39762187 0.09502161 -0.34314612 0.0037849902 -0.14308515 0.09488427 -0.14942476 -0.15089123
yet 0.17282873 -0.27487934 -0.1593462 0.6513261 -0.037536215 0.023291351 -0.12018965 -0.144132 -0.14438681 -0.016243929 -0.23838697 -0.7233533 -0.096733734 0.016242614 -0.35180837 0.016580995 0.16335632 -0.10600766 -0.1427787 0.034011416
outside 0.3294263 0.14522482 0.27349955 -0.12726276 -0.2123453 -0.078349285 0.120161004 0.40095478 -0.21000837 -0.4458993 0.45354947 -0.044634316 0.046411768 -0.08658255 -0.21089199 0.057374086 0.4316942 0.2944764 -0.015196892 0.14422455
miss 0.07129997 -0.07740399 0.33225653 0.10328159 -0.32405692 0.035936013 0.05784303 0.42784545 0.070863396 -0.15047824 0.35373256 -0.44863135 0.19785209 -0.062923215 -0.3972176 0.4303229 -0.3089703 0.2532582 0.039227564 -0.16847408
idea -3.3760214e-05 -0.21346433 -0.16924508 0.29525122 -0.09790509 0.18857506 0.1260776 0.28169876 0.1263841 -0.17498995 0.038961496 -0.7661946 0.34443915 -0.3312677 -0.024716739 -0.012994315 0.8625391 -0.22285408 -0.29721668 -0.06229049
depressed 0.42366165 -0.034144826 0.14454891 0.29922006 -0.50665015 0.061532862 0.37956768 -0.024273051 -0.2852321 -0.35470083 -0.043760613 0.088375695 -0.1025744 -0.1471522 -0.3345854 0.33872646 0.58614296 -0.26688337 0.14388192 -0.28944513
red 0.2206844 -0.119523 -0.21641684 0.34950262 0.04402615 -0.91074795 -0.30451864 -0.013604329 0.31642404 -0.20003982 0.69435763 0.26265275 -0.23984632 -0.1516182 -0.5598721 -0.13362141 -0.019481918 0.14832205 0.3987615 -0.27287638
throw 0.28825527 -0.25463524 -0.42774415 0.2777982 0.41896188 0.018147519 -0.13604394 -0.3668974 -0.42991018 -0.18199825 0.5348214 -0.06190855 0.1232707 0.025714446 -0.10488552 0.1586867 0.3281324 0.22781938 -0.16064061 0.3529932
crumby 0.20781605 -0.2641552 0.17669266 -0.093358815 -0.00508796 -0.3185738 0.1904144 0.15400605 -0.6544388 -0.18850878 -0.02548679 0.37984395 0.30375117 0.1326116 -0.20235182 0.43176597 -0.080835216 0.6831697 0.12130918 -0.37246406
instead -0.012673145 -0.084959105 0.11058295 -0.1629928 -0.32396197 -0.5525447 -0.032683667 -0.29698485 -0.30289435 -0.11688666 0.3851898 0.21594642 -0.112291716 -0.06779484 0.00768678 0.044329055 0.124801606 -0.03481295 -0.5349426 0.15513095
hang 0.08077433 0.03989159 0.046307642 0.42534965 0.009985111 -0.5138941 0.28325072 -0.1734358 -0.28406018 -0.13824601 0.32345212 -0.064261496 0.0042243158 -0.027176768 -0.13088916 -0.09478865 0.11057526 0.18161829 -0.004322003 -0.13936669
class 0.07485945 -0.2050215 0.4819889 0.16007993 -0.0278162 -0.0052135363 0.19484103 0.036220893 -0.009299639 -0.021931075 0.09424145 -0.29042375 0.33136234 -0.28001633 -0.31993574 -0.0727104 -0.24572617 0.29350278 -0.18894938 -0.261843
instance 0.15128435 -0.5244825 0.14118427 0.3201132 0.08142854 -0.036372557 0.20807387 0.0073130885 0.11016012 0.26240104 0.263416 -0.49977311 -0.014927737 -0.6233517 -0.11036693 0.01727464 -0.16788587 -0.106657 -0.08764472 -0.24342816
sunday 0.052381035 -0.2853946 -0.2495199 0.37155753 -0.006181384 0.099504665 -0.41059682 -0.20507967 -0.032158867 -0.20777331 0.6444792 -0.5963428 -0.1627701 0.022391258 -0.050827026 -0.070868924 0.27717054 0.057034306 -0.59379715 0.16120733
knock -0.009207965 -0.04782496 -0.1022669 0.17826441 -0.09635485 -0.04654185 0.15045118 -0.20079817 -0.14727089 -9.14006e-05 0.36564475 -0.21443868 0.30862024 -0.14866003 -0.010548571 0.18859333 0.26979285 0.08177236 0.0088469805 -0.2101012
twenty 0.09625826 -0.19754064 -0.7924119 0.19177912 0.018549357 0.27764502 -0.21462797 -0.33659598 0.2158978 -0.49763083 0.47485834 -0.1569076 0.24718696 0.09631982 -0.15608819 -0.18925065 0.98943406 0.016439132 0.33037692 0.19929983
different 0.31843695 0.08394897 -0.43762276 -0.2075113 -0.5344439 -0.2017035 -0.16008408 -0.55908304 -0.119145535 0.22442879 0.2927908 -0.1775659 0.46991244 -0.21367738 0.33081558 0.42661902 -0.1524894 0.04889098 -0.41734332 -0.31159592
drunk 0.3995494 0.100483134 -0.07271109 0.2141309 -0.17072898 0.10251497 0.17634913 -0.06172452 -0.17789 -0.11573596 0.38271958 0.19622181 0.1520048 -0.21663398 -0.07952639 0.15174253 0.24024151 0.20020483 0.036911756 -0.19221249
neck 0.15077268 -0.023244785 0.14885113 0.2590741 -0.1789483 -0.49248496 0.21212383 0.14970672 -0.22503899 -0.2482876 0.5756874 -0.1960634 0.07759582 0.10153853 -0.1799681 -0.1922372 -0.0659354 0.1305982 0.018654428 0.14713787
wake 0.20185514 -0.33919603 -0.53955233 -0.10417001 0.15677105 0.38479286 0.24917834 0.3102438 -0.27109194 -0.4140551 0.6596195 -0.25365308 -0.3420397 -0.39450938 -0.111957915 -0.24585284 -0.10263966 0.2724914 -0.85079265 0.13073406
afraid 0.26243883 -0.21364732 0.18058175 0.23138626 -0.19288264 -0.3320341 0.14743574 -0.29043332 0.037059247 0.11603326 0.06985737 -0.58532107 0.13481893 -0.21277514 -0.056704506 0.03834361 -0.18371587 -0.08400194 -0.2307842 0.0056357807
buzz 0.24165279 -0.6345656 -0.23733345 0.106357 0.22212492 0.18767396 0.16785039 -0.37199724 -0.11799333 0.009957519 0.30772367 -0.9288974 -0.30766386 -0.27254117 0.17345554 0.011335679 0.60309243 0.29804 -0.44497436 -0.33197567
luce 0.37954146 -0.17776239 -0.32817295 0.2318007 0.12683275 0.037283614 -0.12174187 -0.27158767 -0.1724395 0.12718384 -0.005542227 -0.49170324 -0.03591579 -0.28622225 0.21348974 0.09712272 0.6277315 0.044894837 -0.37179774 -0.09227048
english 0.008754205 -0.42591825 -0.25611103 0.36517668 -0.29283342 -0.08704452 0.014206294 -0.11791585 -0.065093726 -0.026506547 -0.7324976 -0.11410674 0.33547628 -0.39606267 0.04556625 -0.016322277 0.043983888 -0.02599916 -0.76956373 0.03515035
hill -0.28498712 0.18336567 -0.21904771 0.0031892287 0.33358145 -0.04513651 -0.08087654 -0.15337381 0.77252096 -0.612474 0.46134046 0.4072012 0.018568385 -0.24692075 -0.60738486 0.3661417 0.7434864 0.38142034 -0.653975 -0.39346644
war 0.029369164 -0.0017289266 -0.11161382 0.3583542 -0.09213666 0.0058468557 -0.08548433 0.30298936 -0.019283345 -0.3608713 0.36364558 -0.31176502 0.0005789535 -0.1340359 -0.041096117 0.097424686 0.53951555 0.14099735 -0.1862809 0.07650601
pocket 0.14502394 0.014109816 -0.12423586 0.7632756 -0.01716309 -0.79197824 -0.5078097 -0.12960368 0.030404614 -0.006360329 0.3954548 -0.12115478 -0.41501483 -0.055066895 -0.7693329 0.3238417 -0.2074227 0.3494029 -0.05786507 -0.054231588
closet -0.10612701 0.12962301 0.020484611 0.14030123 0.075239435 -0.7091097 -0.018569956 0.05186964 0.03699383 -0.24413973 0.031116514 -0.31870693 -0.12693201 0.31818485 -0.30774835 0.15127175 0.34255227 0.24594118 -0.97877675 0.07096344
close 0.0939765 -0.37130755 -0.3356924 0.050701577 0.13978872 -0.2812606 0.10748683 -0.61998755 -0.037765663 -0.16218351 0.10267553 0.1300013 -0.17251475 -0.02673084 -0.050922588 0.3668038 -0.22256906 0.2679517 -0.3731524 0.35749763
corny 0.36118153 -0.34968007 -0.37530082 0.52637357 -0.3993988 -0.515308 0.683084 -0.09782628 -0.11711304 0.51741576 0.15973546 0.71438795 -0.016958332 -0.23088995 -0.14127572 0.1941414 0.26344165 -0.42653832 1.0307587 -0.4311823
worry 0.13163573 -0.40154928 -0.29990393 0.5636085 -0.01839668 -0.453966 -0.31959605 -0.26989698 -0.19486673 -0.021758135 0.09844431 -0.539961 0.33119047 0.075246096 0.044572566 -0.16207016 0.16554043 0.49407902 -0.34335375 0.27987647
lay 0.15703885 0.3093368 0.1745583 -0.030464793 -0.33765107 -0.40614358 0.13586238 0.00024605382 -0.84678775 -0.27222723 0.28622723 -0.4134053 0.047041446 0.018932996 0.016858716 -0.26579022 -0.4956411 0.1486787 -0.95950156 0.0560517
laugh 0.13411936 -0.32709453 -0.38512975 0.30287695 0.06582471 -0.34384164 0.22642957 -0.14992844 -0.07979334 0.061839927 0.16655914 -0.10976839 0.14360765 -0.3850911 -0.18372491 0.18862896 0.031636614 0.18415074 0.06014747 -0.21316323
without 0.025609503 -0.3259114 -0.18188605 0.46838406 -0.16605636 -0.18703526 -0.027298464 -0.006654282 -0.61147296 0.22438496 0.14824289 0.044772353 -0.019784108 0.3486555 -0.11939655 0.04604134 -0.15490155 0.075117104 -0.8310726 -0.07584782
enjoy 0.14508975 -0.17122565 -0.2750222 -0.23239501 -0.21236107 0.07600377 0.26262468 -0.043472685 0.04231884 -0.36259973 0.3585109 0.17642087 0.44034487 -0.25152165 -0.12269615 -0.19144203 0.3252968 0.20314214 -0.07026321 -0.42522347
eye 0.3642663 0.13991708 -0.2639152 0.2257005 -0.33167952 -0.44630152 0.015779262 -0.108501785 0.07033519 -0.23444484 0.32420942 0.26822197 -0.044883706 0.18521832 -0.45968407 0.43576422 -0.5495613 0.14198947 -0.15962882 0.5115565
bathroom -0.07515914 0.0064110477 -0.12690902 0.22760126 -0.11916027 -0.51199996 0.07669862 -0.101036616 -0.17782013 0.024462907 0.27247772 -0.27635762 0.18593526 -0.044471256 -0.16685612 0.09502754 -0.08436113 -0.036190502 -0.4283424 -0.0070005893
child -0.12674205 0.38369346 0.010237096 0.8181865 -0.50284386 0.468878 0.011811958 0.19781433 -0.28529906 -0.13593961 0.7265373 -0.58895135 -0.07058266 -0.19071916 0.27374732 0.27924404 0.7965554 -0.12745161 0.21911965 0.08634749
maurice 0.20704511 -0.3867181 -0.5261635 -0.04066092 0.06675796 0.07158323 -0.16570869 -0.32067546 -0.17928451 -0.110688314 0.12098216 -0.4764416 0.025884265 -0.28022006 0.08125177 0.083430015 -0.36856246 0.10531571 -0.14312926 -0.3096613
glove 0.3494957 -0.11164668 0.06828339 -0.19535087 -0.30880493 -0.34515977 0.017126992 0.19246309 0.007133892 -0.15562084 0.21233626 -0.27368703 0.083252795 -0.3716161 0.0060909935 0.059757534 -0.1998319 0.1576063 -0.34837833 -0.3017941
thought 0.21452244 -0.0360212 -0.08858304 0.05828977 -0.021189306 -0.09161283 0.17115586 -0.37315622 0.17496382 -0.23459348 -0.007143131 -0.06910995 -0.14667371 -0.18648134 0.1027267 0.18023705 0.23991564 -0.055793338 -0.081223845 -0.09627083
enough 0.25162506 0.066519774 0.17881212 0.49769703 -0.1864596 0.48263037 -0.32922733 0.050805885 -0.4952743 -0.46823835 0.23598884 0.30764365 0.51692134 0.0036830246 -0.20246468 0.4759723 -0.38625914 0.13883446 0.5120797 -0.42224964
hello 0.20619586 -0.39419433 -0.6106442 0.08574609 -0.14565133 0.3068951 0.20626983 -0.4806771 -0.39943165 -0.20471288 0.17893896 -0.6848134 0.18546492 -0.19777298 0.03756987 0.12264096 -0.034929167 0.17710455 -0.40648532 -0.24083692
pass 0.017250728 0.08018341 -0.12037404 -0.086361445 -0.52741295 -0.2120282 -0.04970908 -0.1778012 -0.07822714 -0.10243942 0.1776585 -0.51216865 -0.022852704 -0.299758 -0.2891107 -0.4163861 0.4857945 0.23211399 -0.7597217 0.22417115
please -0.15335368 -0.50365037 -0.4757697 -0.34857535 0.121139415 -0.3115102 0.27400234 -0.6689214 -0.17131001 -0.14188012 -0.25771338 -0.04176318 0.40029326 0.1894429 -0.039640415 0.0080534965 0.3467699 0.38465393 -0.46327037 0.074779704
interested 0.07699531 -0.16163263 -0.04944876 0.17743291 -0.05651654 -0.0045958576 0.18986212 -0.17065589 -0.26778156 -0.2846787 0.32581413 0.09784371 0.3568429 -0.11354391 -0.09982748 0.124852315 0.42319834 0.2213502 0.07479728 -0.17283125
jesus -0.28952512 -0.4931599 -1.0143535 0.3027623 0.30726242 0.5789327 0.3376381 0.19691066 0.51682377 -0.7421005 -0.66039026 -0.72737586 0.4180683 -0.74437684 0.27195302 0.5446335 0.21205164 -0.481088 -0.044784945 -0.8879303
lose -0.313147 0.34622094 -0.116254285 0.008582475 -0.50851345 -0.21115105 0.020078126 0.11063147 -0.46403056 -0.83524233 0.23521642 0.40461347 -0.053118248 0.06644718 -0.17517221 -0.22428574 -0.05948848 0.027266877 -0.51977664 0.12430078
marry 0.10554279 -0.122777365 0.074920565 0.26972005 -0.3401621 -0.074891835 -0.01401341 -0.17510004 -0.30472794 -0.15535285 0.18647656 0.13224785 -0.0891144 -0.3010877 -0.2012046 0.40433913 0.26806894 -0.11711563 -0.22728114 -0.17447099
finish 0.18403512 -0.008077633 -0.20029913 0.21283384 0.005211083 -0.47104245 -0.04531499 -0.04013639 -0.09909678 0.26395774 0.38435048 -0.121205635 -0.15908736 0.008137448 -0.112443015 0.41566914 0.05588834 0.44583827 -0.18570465 -0.108922064
lady 0.33635554 -0.22462374 0.017116964 -0.12313317 -0.21213166 -0.25089738 0.050098494 -0.4545036 -0.2525131 -0.2484669 0.27750668 -0.050148793 -0.12009752 0.101536535 -0.21599415 0.280165 0.2783002 0.13940403 -0.23265308 0.070541814
catch 0.016234314 -0.37460557 -0.16778588 -0.03222273 -0.38953122 -0.03212262 -0.18101531 -0.50266826 0.34861028 0.09730796 0.18892758 -0.64479256 0.038812086 -0.056483973 -0.060671333 0.034493078 0.22218892 -0.23267749 -0.82813084 -0.4747857
bar 0.17682792 0.17113033 -0.20757444 0.058125272 0.32510653 -0.5098312 0.25141126 0.1722967 -0.0656076 0.091956854 0.37000385 -0.33805236 -0.19956513 0.1150493 0.27219084 0.20761967 0.75980955 0.05409311 -0.7354195 -0.0015844459
madman 0.39029983 -0.020178532 0.28568685 0.027474452 -0.24013825 -0.21383566 0.38458288 -0.23340943 -0.27072296 -0.18443875 0.28438148 0.14726512 -0.1266184 0.13949822 -0.4953682 0.43161666 0.043734834 0.18954694 0.6782572 0.004826454
story 0.15966667 -0.59234715 -0.08302146 0.4660152 -0.28249818 0.0567795 0.04121558 -0.33114752 -0.5571402 -0.22916839 -0.10222356 0.08131198 0.002184548 -0.60538644 -0.30682462 -0.24280976 -0.018668499 0.077009715 0.37044457 -0.0068367184
top 0.19532588 -0.08056859 -0.029766368 0.067246445 -0.32909235 -0.04962981 0.053049132 0.11641316 0.25027376 -0.18684359 0.39919505 0.2439386 -0.33526245 0.026027672 0.0140758995 -0.1556668 0.49772924 0.379875 0.17768869 -0.41877672
bring 0.10206818 0.13235249 -0.5731462 0.08818966 -0.2524927 -0.18866296 -0.32156748 -0.2885237 -0.2613923 0.3743812 0.17873617 -0.54076976 0.38124427 0.52550817 0.19661094 0.08426617 0.5633531 0.039950334 -0.4660635 -0.21174198
sad 0.34909588 -0.0047498792 -0.17057861 0.09700236 -0.11219177 -0.29682785 0.12903716 0.100318454 -0.31129318 -0.18416512 0.056042958 0.07412506 0.015692046 -0.25463727 -0.28983882 0.022042722 0.15418969 -0.068964556 0.26610905 -0.4639956
fast 0.103192374 0.045517012 0.21557035 0.0852991 -0.09801549 -0.013839042 0.0720773 -0.097590186 -0.17775445 -0.037781637 0.15752281 -0.24797492 -0.37308204 -0.032302324 -0.31965506 0.48804393 0.59548223 0.13463955 0.11879865 -0.15843804
move 0.037413444 0.045395255 0.06551554 0.16656864 -0.09597786 -0.22647123 -0.06929696 0.16381826 -0.39135 -0.18306436 0.34546104 -0.62977725 0.35019714 0.13887343 -0.20379308 0.10251655 -0.1068928 0.32431874 -0.2103549 -0.04227557
beat 0.21010073 -0.26661953 0.05225659 -0.006642334 -0.19984883 -0.31284058 0.22102323 -0.07826699 0.107924156 -0.30185395 0.51226014 -0.055258464 0.1931622 -0.118787885 -0.27251944 0.15333241 0.01826981 0.29983288 -0.2607249 -0.16487673
hit 0.20603418 -0.53742975 0.05463558 -0.8782206 -0.63543165 0.11537699 0.71228933 -0.23219328 0.10776381 -0.26264578 -0.15953606 0.4954064 0.3199498 0.2785255 -0.56398404 0.16280594 -0.21511294 -0.37711847 -0.35272053 -0.14442745
million 0.1336083 -0.19826825 -0.30564687 0.59424925 -0.26887164 -0.15551978 0.17518812 0.043490075 -0.1443528 0.07983796 -0.02767205 -0.14764203 0.06394347 -0.050707534 -0.13699336 0.07000387 0.6481968 -0.20711064 0.24591438 -0.20416676
dirty 0.12815112 0.37714142 -0.21904407 -0.69395965 -0.14553776 -0.26550072 0.38183036 0.11365307 -0.33175 0.09129358 0.11640478 -0.7267131 0.6511657 -0.5134058 -0.03332888 -0.17327924 -0.40332153 0.6260409 -0.10870763 0.083565965
naturally 0.16230051 0.21387641 -0.041121922 0.23976366 -0.14659461 -0.32897627 0.322037 0.08499152 -0.1867793 -0.24651632 0.33643594 -0.2762314 0.15867518 -0.02638444 -0.16699015 0.17412908 0.15216865 0.1211663 -0.2062697 -0.30732188
middle 0.17551969 0.07221004 -0.08986513 -0.11907333 0.06889489 0.10475511 0.30149835 0.022428298 -0.22594045 0.09565677 0.28204814 -0.52326286 -0.059197787 -0.301221 0.1259632 -0.2435258 0.12446373 0.07726423 -0.18498838 -0.4214397
already 0.098027974 0.1699664 0.41291255 0.030340003 -0.28376594 -0.3559048 -0.17836355 -0.44728252 0.027540173 -0.737981 0.22500253 -0.78025514 0.16099298 0.4129452 -0.332093 0.43300524 0.19934717 0.13367169 -0.5970577 0.12679368
sonuvabitch 0.1516876 0.014113376 -0.48778892 -0.33155483 0.18011157 0.120848574 0.26300883 -0.36244452 -0.01183046 0.010923453 -0.04993 -0.15104686 0.10468734 0.30751878 -0.12854707 0.18187262 0.4113793 0.4955846 0.10914692 -0.29002187
cry 0.1246749 -0.19178012 0.04487278 0.10626028 -0.26032653 -0.19880879 0.14974275 -0.1419884 -0.2738869 -0.31718257 0.13912861 -0.13425933 0.30628827 -0.19100986 -0.2950112 0.063045815 0.14849685 0.3329114 -0.22219677 -0.03920064
sex -0.027258744 -0.46388525 -0.09100359 -0.0143965725 -0.46338996 -0.24953187 0.13298385 0.30569568 -0.26973915 -0.14921416 0.25672328 -0.16750707 0.7742539 -0.05078138 -0.049840126 -0.15644924 0.34769106 -0.09001258 -0.0681925 0.06157259
ernie -0.0651611 -0.033482783 -0.25568748 0.115624 -0.0051426752 -0.15087348 0.15221374 0.031861562 -0.01914679 -0.070365585 0.39508814 0.028202798 0.13321795 -0.04152653 0.13558666 0.05673129 0.54917824 0.055769563 -0.10932877 -0.086397775
glass 0.061957575 0.0158843 -0.044708926 0.18761897 -0.07727708 -0.3918457 0.0377757 0.18698718 0.11544132 -0.11072708 0.087208055 -0.122041784 0.27207798 0.07006675 0.0073282085 0.070787765 0.41095418 -0.049804296 -0.53012764 -0.0470307
many -0.055926424 0.1531707 -0.17078976 0.08636218 -0.3855362 -0.14118885 -0.051032316 -0.17435585 -0.12671103 -0.12378136 0.00012661744 -0.22015764 0.11471887 0.04635797 -0.10763768 0.020178758 0.3491188 -0.1866752 -0.13313285 -0.33990282
teacher 0.0534734 0.1299157 -0.23146781 0.25600064 -0.07085169 -0.18964244 0.023229346 -0.1963046 -0.04136634 -0.36274922 0.17502421 -0.2806437 0.068901114 -0.20038635 -0.12633607 0.24464409 0.42522812 0.27508283 -0.1722693 -0.19105129
help 0.22986805 -0.15770996 -0.003937608 0.1412554 -0.13494712 -0.0025590467 0.16902792 0.013856224 -0.16259986 0.014646795 0.008776379 -0.40981784 0.18648282 0.1684187 -0.15566272 -0.13365711 0.30548012 -0.14943396 -0.28653237 -0.0315517
wear 0.2155142 0.050915685 -0.46197155 0.41832665 -0.15506594 -0.01883587 -0.0486246 -0.3230229 0.0060508 0.4112439 -0.052785657 0.038713556 0.12589715 -0.091782175 -0.27781764 0.14407627 -0.4709259 0.0221866 0.6010782 -0.24300227
leg 0.21840443 -0.16893795 0.0932992 -0.2014847 -0.41771477 -0.51184124 0.37367767 0.14081568 -0.077503376 -0.18946703 0.17895184 0.2290443 0.38402915 0.02651427 -0.12375521 0.29217023 0.4266525 -0.18305357 0.15865314 -0.3814736
send 0.3023674 -0.0373515 -0.6435545 0.16275641 -0.17512079 0.051408827 0.20049506 -0.007774132 0.048619825 -0.0456706 -0.23453955 -0.35503724 -0.28790048 -0.14240834 -0.16947384 0.22855447 0.10867041 0.097550616 -0.23019598 0.21467684
shot -0.48957142 -0.11721037 -0.008320423 0.15704486 0.118560486 -0.16489011 0.2958934 0.23943429 -0.164745 -0.23274148 0.17814769 -0.046594415 0.4246934 -0.1488741 0.03998631 0.23251899 0.6889276 0.15601923 0.21361384 -0.4935682
act 0.033358816 0.044714935 -0.019574368 0.44593415 0.10412508 -0.3517754 0.44402885 0.019296177 -0.5210042 0.231617 0.17303702 0.016823655 0.24248736 -0.12285248 -0.049420245 0.15827133 0.682024 0.045480322 0.29598573 0.2007812
fall 0.08119278 -0.11338182 -0.29777744 -0.022037925 -0.2039334 -0.33079398 0.20782429 -0.14366555 -0.14504589 -0.012823464 -0.12769549 0.2779452 0.114039086 -0.22479627 -0.30817583 0.0031417683 -0.14521581 0.23830195 -0.16093212 -0.29367217
helluva 0.24433891 -0.011886909 -0.11047413 0.6527108 0.1100493 -0.27482632 0.0839665 -0.13410442 -0.23548272 -0.05068267 0.28071752 0.038393322 0.14887767 -0.282063 -0.370728 0.24341626 0.3374144 0.20178041 0.10316242 -0.044396278
mostly 0.32056934 0.17141238 -0.13544099 0.68074363 0.2500863 0.07645924 -0.205916 -0.47105354 -0.35376057 -0.1374447 -0.008262222 0.55420095 -0.17463939 -0.3855105 0.27838442 0.6013244 0.032894224 0.5750581 0.12650213 -0.63831174
sexy 0.25562292 -0.09103776 -0.08115539 0.3482845 -0.48370448 0.028706182 0.11546653 -0.39872253 -0.20526606 -0.04085083 -0.029167252 0.098563805 -0.0011317463 -0.3478127 -0.32959113 0.5273902 0.34674668 0.0144448085 0.124998 -0.24294032
together 0.10447687 0.008650251 -0.30765146 0.21466443 0.13300763 -0.04191982 0.17868638 -0.021543909 0.034270573 0.07143058 0.44856164 -0.3784249 0.44765872 0.1824558 -0.102168776 0.08032167 0.65785575 -0.08399859 -0.52190226 0.20807649
bunch -0.0013431379 0.32859614 -0.08493823 0.34576967 0.16735415 -0.4136639 0.20517893 -0.36887926 -0.04657876 0.23457655 0.19727194 -0.3431284 0.035290424 -0.095721014 0.08656128 0.027488617 0.495262 -0.0070776744 0.3979802 -0.18857485
alone -0.016668031 -0.24555 -0.3722533 -0.0009651618 -0.29163203 0.008653712 0.29596493 0.06191876 0.021502862 -0.26540086 0.42968887 0.2242582 -0.11060367 0.09897879 -0.11916656 0.23692733 0.23354028 0.22242036 -0.37452355 -0.13383688
piano -0.343439 0.047656294 -0.19233845 0.40140206 0.17812692 -0.5790737 0.09894177 0.33204612 0.21546403 -0.17538744 0.5767437 -0.039213352 0.08559101 -0.20505871 0.14538634 0.022032673 0.92605776 0.13841075 -0.22010145 -0.35541907
body 0.29756635 -0.45510337 0.03467514 0.095627196 -0.30386207 0.21132286 -0.15712672 -0.5885331 0.60325825 0.30790007 -0.48002988 -0.6219192 0.4205916 -0.12624013 -0.030725516 0.12835868 0.43980396 -0.25375694 -0.61382663 -0.7943521
museum 0.016976198 -0.022798302 0.09366561 0.10889178 0.035663966 -0.33198786 0.14371604 -0.20862855 -0.25742686 -0.15247029 0.18614376 -0.2911091 -0.011130222 -0.1487001 -0.18442774 -0.11481009 0.39402726 0.25384077 -0.42639756 -0.001251999
second 0.16448383 -0.12692295 -0.0471378 -0.4377675 -0.42019153 -0.107352756 0.20833117 -0.33629972 -0.21564563 -0.41046605 -0.33387414 -0.30681428 0.09586155 0.22497287 -0.3283117 0.22896805 0.19049804 0.49774748 -0.72133994 0.475947
job 0.023618758 -0.13268884 0.012888178 0.23294188 -0.24472722 -0.046302717 0.107192494 -0.09467481 -0.081275105 -0.17151943 0.47586071 -0.42805165 0.01608445 -0.09730563 -0.16526368 0.09879944 -0.13388686 0.0014199344 -0.06279022 -0.013489947
thousand 0.2975679 -0.18164338 -0.25863743 0.40753454 0.27285987 -0.010689477 -0.18093538 -0.06582999 -0.22887531 -0.45039406 -0.11068547 -0.2253444 0.025028799 0.096349604 -0.0697125 0.27486753 0.52318823 0.14273545 0.20397691 -0.08775859
short 0.32402083 -0.09094894 -0.14027004 0.15698892 -0.057243973 -0.15475921 0.087673746 0.07132728 -0.09597716 -0.002636877 0.20489806 0.075913265 0.09117166 -0.18837166 -0.27488068 0.19964242 0.03952261 0.18553826 -0.005429785 -0.042960163
anywhere 0.40466106 -0.28293216 -0.0053855493 0.07869765 -0.31917274 -0.32610354 0.22125481 -0.18054809 -0.14562678 -0.0025266435 0.34284872 -0.31137732 -0.20733742 -0.4459878 -0.2968535 0.18488841 -0.051464498 0.36388296 -0.30852363 0.011896046
breath 0.2095059 -0.09219149 -0.13933215 0.12010187 -0.18015902 -0.34351435 0.17609169 -0.20987172 -0.24986757 -0.26313248 0.21247756 -0.2281821 0.06779919 -0.07633076 -0.27692732 0.04552128 -0.03493589 0.12291756 -0.33613572 -0.1878423
hurt 0.14409633 -0.19355527 -0.40939257 0.116057105 -0.21219075 -1.0203626 0.2829833 0.36160472 -0.16355509 -0.42341584 -0.10429055 0.28039756 0.28564763 -0.19913585 -0.6912635 -0.088735096 -0.5813546 0.16389823 0.46248993 0.13925062
loud 0.45292568 -0.32561028 -0.24774148 0.04161024 -0.19244437 0.19253345 -0.0832269 -0.4149111 -0.12973033 -0.34760886 -0.02658452 -0.61299 0.110983625 -0.36607325 0.30931747 0.24151096 -0.24406922 0.27673075 -0.07985019 -0.19309254
shake 0.12893099 -0.27742705 -0.21574123 0.2593737 -0.020841205 -0.34782064 0.2553909 -0.16789435 -0.3214181 -0.076105125 0.2847925 -0.14689367 0.4046958 -0.41865376 -0.39298517 0.04072957 -0.19671287 0.21422128 0.46133947 -0.33599204
whooton 0.078570455 0.08536753 0.2703711 0.3079068 0.13747752 0.12065681 -0.2596151 -0.26165146 -0.033820488 -0.34061602 -0.13746193 0.13142997 -0.12671164 -0.4591884 -0.05064121 0.21043433 0.58387995 0.2729886 -0.5195616 -0.26384133
wish 0.22744405 -0.2527012 -0.34029314 0.08514049 -0.12812307 0.0029334095 0.24926463 0.015461228 -0.12504679 -0.18064536 -0.049362507 -0.20758629 0.36750317 -0.0951765 -0.031989846 -0.117090605 0.9285471 0.3081831 -0.20802219 -0.41271046
real -0.14565124 0.37555352 -0.17313325 0.076127976 0.116680495 -0.08913834 0.28274813 -0.34078252 -0.14643851 -0.32573226 0.24269652 -0.13142355 0.3968185 -0.22755401 -0.16058148 0.11619965 0.33198693 0.031441215 0.040527347 -0.31401774
shoulder 0.1958307 -0.16634347 -0.295613 -0.31918034 -0.34110615 -0.60192806 0.08705097 0.26956165 -0.05102504 -0.48074555 0.3987809 0.23718196 0.438829 -0.10001136 -0.19299364 -0.22238812 -0.34248933 0.08688701 -0.17914842 0.054945923
mood 0.009903232 -0.5457255 -0.25186637 0.025818521 -0.25928593 0.024223141 0.03485719 -0.15521708 0.045446612 0.034503084 -0.0053847926 -0.09853313 0.3086759 -0.220822 -0.39246196 0.37619856 -0.118812956 -0.20930135 -0.44880885 -0.19652013
change -0.05250955 -0.3663812 -0.011070235 0.688309 -0.22621779 -0.4045504 0.26375508 -0.22469947 -0.13410571 -0.33331162 0.25079793 -0.29362682 0.036930762 -0.2575115 -0.2825206 0.0016140381 0.48163918 0.3370402 -0.062051263 -0.41798747
wrong -0.14665487 0.025671931 0.09348545 0.40650943 0.0074641937 -0.38836816 0.1757105 -0.19710347 0.028080177 0.13887729 0.05425579 -0.04499214 -0.11608047 -0.24385087 -0.3147602 0.07835477 0.46533677 0.19982705 -0.10599746 0.21854904
stink 0.11899148 -0.2208751 0.07429258 -0.3182443 -0.14560564 -0.21152721 0.5774963 0.03932607 0.24839069 -0.32562867 0.16848822 -0.36025086 0.23638414 0.04728104 -0.14206538 -0.3018592 0.052066922 0.10538868 0.10354449 -0.23445074
love 0.014733525 -0.1909238 0.05071337 0.1605704 0.020449765 0.09464176 -0.11297137 -0.16990727 -0.3588397 -0.028576469 -0.18320988 -0.11049546 -0.056767765 -0.23819396 -0.2830065 -0.0038382683 0.21350521 0.22275852 0.027531583 -0.21170393
teeth 0.52925277 0.018390205 -0.27879822 0.18232857 -0.018659038 -0.4287261 0.30029032 0.36908573 -0.3751723 -0.22755137 0.7547729 0.09793184 0.5485767 0.48477453 -0.55964404 0.15854992 -0.99330795 0.32276547 0.2722845 -0.38316214
depress 0.29354027 -0.045722764 -0.3111559 -0.2039858 -0.3880591 -0.22883904 0.20609824 -0.2044574 -0.23609626 -0.052996416 0.18770395 -0.44927305 0.252355 -0.066905595 -0.13739426 0.22725068 0.2000865 0.103922784 -0.512904 0.093211405
catholic 0.16871634 -0.3456762 -0.35807136 0.068470895 -0.09177392 0.17516848 0.26530668 -0.17343384 -0.012260954 -0.13902298 -0.28793362 -0.28435987 0.29738873 -0.2430863 -0.06675544 0.06574531 0.22783712 0.1197961 -0.31620073 -0.24130416
inside 0.10587711 -0.050663266 -0.086745225 -0.09323785 -0.12049823 -0.15878528 0.0589788 -0.27148557 -0.05021211 -0.043351892 0.28603956 -0.30583286 -0.149159 -0.094791815 -0.18483314 0.09378482 0.39726996 -0.013035706 -0.37596864 0.13309719
week 0.4742004 0.3333299 -0.322401 0.02373576 -0.15666538 0.06689916 0.2597146 -0.048890855 0.44833377 -0.06191645 -0.17926079 -0.28343835 0.058654375 -0.14266127 -0.1420848 -0.117942855 0.28887996 0.15511835 -0.3349913 0.10492674
money 0.08888102 -0.12056298 0.115741864 0.12111839 -0.18150878 -0.14316131 0.1252665 -0.14175737 -0.057792418 -0.101895526 0.23926286 -0.65299547 -0.23455024 0.055233516 0.031166295 0.071801245 0.4724202 -0.011724724 -0.11402358 0.035405867
young 0.08812573 -0.3610859 -0.2964882 0.2288747 -0.27359745 -0.054422416 0.31347305 -0.38998875 -0.29780173 -0.42345908 0.15182506 -0.14709508 -0.08235304 -0.23960774 -0.06528302 0.08726493 0.23609069 0.36686274 -0.17876373 0.19815715
clock 0.24722959 -0.25664875 0.12553884 -0.060808387 0.012653133 -0.2255307 -0.40701485 -0.40393594 -0.32292145 -0.37269494 0.9161225 -0.49946648 -0.20565532 0.4033494 -0.038365167 -0.17405339 0.6716527 0.11356513 -0.2782471 0.48668414
nose -0.3081986 0.16658758 0.04242267 0.69468915 0.08960802 -0.5406514 -0.11317814 -0.25254565 -0.5228209 0.15318023 0.040447544 -0.33496082 0.42319703 -0.069008075 -0.2623737 0.035217207 -0.059040606 0.13136838 0.3418374 0.033909854
thirty 0.57802516 -0.481069 -0.03348126 0.34782496 0.11460654 -0.30489415 0.19469865 -0.19784608 -0.36460757 0.2221717 0.68209773 0.2202794 -0.27806064 -0.12526064 0.24943863 0.12635967 -0.5731786 0.066080324 -0.7283098 -0.022710245
flunk 0.13256966 -0.43914604 -0.31502238 -0.09054555 -0.12688906 0.30844596 0.26153782 -0.20921564 0.07644898 0.14954783 -0.57769156 0.06466509 -0.015962906 -0.40541115 -0.24094191 0.1552799 0.12589137 0.047995217 -0.5184362 -0.23762369
thanks -0.13263406 -0.56733865 -0.40444356 -0.14970249 -0.1712478 0.10499565 0.18228272 -0.5231044 0.050625056 -0.30802003 -0.0036547482 -0.7397696 0.57042813 -0.39066085 -0.3498894 0.1616924 -0.015271968 0.006820297 -0.6733648 -0.28633776
wednesday 0.152387 -0.33374435 0.10467784 0.19988129 -0.13475128 -0.07816549 0.2326382 -0.44647005 -0.0086653605 0.11595555 -0.12679529 -0.47933593 0.061458714 -0.050929885 -0.06330456 0.030665634 0.14672068 0.05415359 -0.74226856 0.18641298
age 0.05375529 -0.096733555 -0.29259738 0.290535 -0.03900558 -0.14001547 0.39235583 -0.1462049 -0.4439529 -0.027089464 0.09265206 -0.12815562 0.09021273 -0.14177896 -0.30041966 0.11703537 0.23957293 0.10629893 -0.047802262 0.0288662
quit -0.097785585 0.13375537 -0.38400105 0.002238003 -0.33482838 -0.090535074 0.17202927 -0.1700436 0.31735134 -0.37894595 0.24213612 0.15172459 0.30981225 -0.14580572 -0.33956775 0.0058363522 0.45349643 0.33519495 -0.43024924 0.11425456
store -0.059062146 -0.0071583395 0.14278127 0.17331816 -0.14531353 -0.29131073 -0.16780134 0.117179945 -0.17175691 -0.35567638 0.59586936 -0.48943898 -0.24915205 -0.29791018 0.015231769 0.028568644 0.5826038 -0.019523012 -0.5631552 0.6693048
friend 0.016261322 -0.3567178 -0.27131325 0.18101111 -0.07759793 0.1556668 0.06673947 -0.14999303 -0.039260976 0.058879092 -0.18086594 -0.22489405 0.09002201 -0.3775419 0.24256569 0.124581456 -0.031274185 0.051270828 -0.003346885 -0.29162806
behind 0.10252288 -0.13138483 -0.09787677 -0.0043224343 -0.06951336 -0.52260655 -0.11769519 0.0631937 -0.48983428 0.23054594 0.11348824 0.36984336 0.38300836 0.17364474 -0.31869304 -0.052840665 -0.14581329 0.4271825 0.1468308 -0.17136271
gut 0.22335626 0.046407897 -0.3137715 0.21938655 0.058037415 -0.56348515 0.10013994 -0.16330044 -0.2122158 0.019903231 0.07372993 0.008776012 0.16264202 -0.09638109 -0.18499234 0.07546252 0.07547242 0.15411647 -0.003402168 -0.26692572
intelligent 0.2750927 -0.11967532 -0.43842262 0.76593375 0.08849409 0.13601112 0.13844594 0.14132664 -0.30215845 -0.2509139 -0.18393646 -0.18904375 0.99776757 0.31291142 0.077032164 0.25384358 0.3815857 0.11579745 0.07330008 -0.2780399
thank 0.10006613 -0.13772525 -0.22788002 0.62164396 0.02819365 -0.23116992 -0.0675637 -0.38667807 -0.14591245 0.21022937 -0.088665046 -0.051214773 0.37343255 -0.14538214 -0.2494678 0.25085348 -0.41742757 0.11369353 -0.2208728 -0.34675372
fact 0.42002526 -0.35414737 0.069979906 0.38292894 -0.07851355 0.23717612 -0.16751245 -0.26112506 -0.04337495 0.011309654 -0.40399936 0.8808108 0.16938078 -0.1391472 -0.20637491 0.6955477 0.13638946 0.05508265 0.3863931 -0.4076397
stair 0.17713529 -0.1930801 -0.45453617 0.16447599 0.1698616 -0.5001334 0.36259225 -0.23229276 0.023492323 0.05694282 0.034598097 -0.5194625 0.300693 -0.02628158 -0.19258957 -0.25109452 0.008919295 -0.15290593 -0.65174526 0.35039312
coffee -0.20428258 0.10765883 -0.15396273 0.25885022 -0.15287933 -0.1951191 0.010729846 -0.10955721 0.009678945 0.017794726 0.019582827 -0.34916177 0.31996584 0.166007 -0.11398416 0.05373198 0.37506387 -0.04090926 -0.44055697 0.029599529
vacation 0.3433627 -0.25421262 -0.30512288 0.18263827 -0.2866636 -0.06106468 0.03811798 -0.40563765 -0.1320108 0.011587661 -0.07527222 -0.34173214 -0.11437268 0.017774912 -0.03458291 0.1041068 0.19917381 0.039381012 -0.59198433 -0.008231423
note 0.25115845 -0.083772615 0.15389234 0.10470461 0.028491091 -0.16036037 -0.050543852 -0.19069839 0.07925059 -0.039969504 -0.033057388 -0.43187478 -0.021985078 -0.00879398 -0.118105635 -0.065446116 0.27575234 0.16932599 -0.6041437 0.08116598
full 0.00078979897 0.3030388 -0.042011235 0.4082246 0.08017511 -0.41349924 0.3713649 0.10812901 0.08160525 -0.31767765 0.27673888 -0.47628793 -0.21376689 -0.14132558 0.14351304 0.22258392 0.26517108 -0.017075088 -0.13814129 -0.30429167
fell 0.2993602 -0.13295922 -0.25172353 -0.53298396 0.10875657 -0.18098335 0.06446681 -0.021821614 -0.35731438 -0.12431444 0.45031515 0.58083487 -0.16014788 -0.104622796 -0.4867266 -0.036178514 0.09981451 0.3667413 0.08363466 -0.28950372
ring -0.068842955 -0.7353409 -0.44345766 0.082526594 0.34532875 0.43109658 -0.063890085 0.19762233 -0.16918443 0.18884473 0.43088675 -0.21812311 -0.39276773 -0.15971068 0.0020745022 0.24685812 0.1490652 0.47009653 -0.24479727 -0.024298282
ear 0.24720669 0.047549296 -0.15059887 0.3793721 -0.090405695 -0.12532488 -0.06466329 0.23821397 -0.59932953 0.07522322 0.40928903 0.34001854 0.4836063 -0.005977145 -0.3728728 0.09902296 -0.36170235 0.4963798 0.6229244 -0.29455736
wonder 0.15494777 -0.23294173 -0.1128587 -0.11558203 -0.196319 -0.25650635 0.11362815 -0.22393438 -0.08402812 0.029217666 0.043239996 -0.29018837 0.04025608 -0.046217967 -0.21747386 0.11876051 0.16854246 0.0052972035 -0.13702725 -0.14094068
smell 0.16285022 0.051720556 -0.26288873 0.40963003 -0.16612227 -0.5182006 0.036852345 0.17172028 -0.39086983 0.19636928 0.14648288 -0.042611152 0.25532338 -0.24951549 -0.28136256 -0.16123164 0.44149518 0.019022731 0.27816853 0.3296417
shoe 0.20071438 0.05513318 -0.026245974 0.1870311 -0.057515495 -0.49123105 0.13021702 -0.15194234 -0.16773492 -0.046725735 0.31105953 -0.15752734 0.1625112 -0.007493102 -0.2267528 0.12096956 0.116111085 0.080144376 -0.3536756 -0.100129984
desk 0.18724689 0.025662394 -0.04552575 -0.02291456 0.023227382 -0.41841716 -0.05608508 -0.010190011 -0.39089614 -0.12732655 0.7290567 0.019184876 0.11264396 0.0843019 -0.3515642 0.28684935 0.09392349 0.18708177 0.042738635 -0.23439766
radio 0.20623727 -0.019539038 -0.2794256 -0.04486986 -0.2177813 -0.014781148 -0.124070115 -0.25847003 -0.10879149 -0.13439275 0.5788015 -0.2955844 0.09704289 0.2741681 0.090959005 0.025779245 0.2304272 -0.22082686 -0.70761853 0.16077001
okay 0.10834586 -0.41046223 -0.26035538 0.25735405 -0.28559354 0.25238517 0.22552723 0.032982275 -0.2705461 -0.23164411 -0.1790698 -0.49259937 0.2941516 -0.41793862 -0.17425437 0.3011685 -0.009938441 0.06836783 -0.33461866 -0.3176547
water 0.18324357 -0.10346594 0.16687322 0.060175758 0.07014647 -0.75599307 0.13048819 -0.021198932 -0.031777494 -0.068861835 0.44656146 -0.13448778 -0.053329207 0.15944184 -0.15835834 0.112913705 -0.26608607 0.040151212 -0.1482745 0.002610144
song 0.029840402 -0.45471492 -0.088225655 0.33272627 -0.25093699 0.13789953 0.047756255 -0.09235744 0.43939325 0.27862248 -0.027063537 -0.40302527 0.29187277 -0.17633104 -0.13020039 -0.2954352 0.29770294 0.13081966 -0.33855698 -0.45671442
stomach -0.6247542 0.31569573 -0.54891866 0.019510217 -0.21181093 -0.9116966 0.19527955 0.32716775 -0.39977592 -0.053536087 0.6887553 0.69000584 0.39150417 -0.14494525 -0.00858896 -0.24771492 -0.21301317 0.30496237 0.22404377 -0.49848738
scar 0.18822649 -0.26687884 -0.031225283 0.033126388 -0.39387837 -0.37436563 0.47378978 -0.20778811 -0.18001583 -0.43279853 0.20818865 -0.22026795 -0.083374634 -0.15386482 -0.41311154 0.1160232 0.4586004 -0.06945723 0.18626606 -0.064100504
step 0.2659779 0.05119974 0.48569965 0.075568974 -0.30356383 -0.15104674 0.17478572 -0.076764844 -0.39527664 -0.11637966 0.33541998 -0.08328618 -0.058402028 -0.063541144 -0.2702656 0.15913802 0.32984787 0.12452863 -0.39252484 0.11488095
usually -0.121366866 0.0637288 -0.46324524 0.36843595 0.16361588 -0.2164637 -0.008403051 -0.10423886 -0.051438224 -0.024537582 0.25006372 -0.25185817 0.22213139 0.19428474 0.15886848 0.10268003 0.5155759 -0.31924036 -0.2439649 0.1340656
check 0.4181445 0.44704217 0.014657868 0.5348408 -0.16570896 -0.291388 -0.06549463 -0.4411469 0.040536065 -0.34095064 0.29080808 -0.63270396 -0.20384738 0.35764137 -0.17235102 0.22763339 0.21228485 0.011559934 -0.34803128 0.31177402
also -0.20880646 -0.09271392 -0.2322522 0.022921737 -0.11976096 0.10706372 0.14286639 0.13799265 -0.21545109 -0.24750456 0.41875166 0.43145436 0.123215154 -0.5109429 -0.23957098 0.11861631 0.040517725 0.3305633 0.08455343 -0.3380287
hundred 0.25585872 -0.24602418 -0.024698466 0.4631576 -0.00820766 -0.1807448 -0.17833754 -0.26504698 -0.06796654 -0.18449256 0.26694584 0.050295416 -0.18532933 -0.3342051 0.006764688 -0.01695783 0.47523496 0.10017904 -0.22463363 0.16102698
case 0.11184252 -0.09540128 0.12193061 -0.055198144 -0.108892836 -0.22428922 0.04044142 -0.11500438 -0.11599415 -0.24993429 0.19861078 -0.2564196 -0.10644733 -0.0011000751 -0.05855244 0.061969068 0.2966207 0.14195302 -0.35049072 0.053530455
saturday 0.13061044 -0.26011458 -0.14734745 0.17476189 -0.18773802 -0.4721463 0.10516674 0.23380443 -0.1618039 0.061888665 0.18465076 0.1390638 -0.13086256 -0.28966552 0.18785603 0.20664707 0.20446318 -0.18512927 -0.19104089 -0.28254035
team 0.3460924 -0.028048394 0.2864903 -0.14022554 0.0032002907 -0.47317225 0.27692276 0.21448143 -0.2931969 0.2686744 0.4598258 0.0658874 -0.46675232 0.10743269 -0.5275456 -0.04565246 0.19498295 0.2769195 -0.69019645 0.039193828
bus 0.043074757 -0.08314417 0.1996921 0.037311062 -0.22075507 -0.151126 0.04735058 0.09760411 0.067474686 -0.50709224 0.70044184 0.13224511 0.1784761 -0.13262089 -0.011510809 -0.00841962 0.23758027 0.2107124 -0.27533183 0.3297501
morning 0.112950414 -0.37352324 0.52152395 -0.17998186 -0.32682627 -0.23715755 -0.30098382 -0.40853244 -0.43037587 0.32195294 0.283488 -0.083625935 -0.5469292 0.10781772 0.03899432 0.36163315 0.15012285 0.02144586 -0.88382953 -0.1290972
